%YAML:1.0
---
opencv_ml_svm:
   format: 3
   svmType: C_SVC
   kernel:
      type: RBF
      gamma: 5.3830000000000000e+00
   C: 2.6699999999999999e+00
   term_criteria: { epsilon:1.1920928955078125e-07, iterations:1000 }
   var_count: 64
   class_count: 17
   class_labels: !!opencv-matrix
      rows: 17
      cols: 1
      dt: i
      data: [ 1, 2, 3, 4, 5, 6, 7, 8, 9, 10, 11, 12, 13, 14, 15, 16, 17 ]
   sv_total: 1355
   support_vectors:
      - [ 1.85512230e-01, 1.78662971e-01, 1.29622370e-01, 1.78392261e-01,
          1.92943007e-01, 1.37071967e-01, 1.32242516e-01, 1.29211038e-01,
          1.44434974e-01, 1.47313967e-01, 1.52856499e-01, 1.29698247e-01,
          1.16676308e-01, 1.13403559e-01, 1.47890672e-01, 1.78029090e-01,
          1.14322446e-01, 5.30540161e-02, 5.24887107e-02, 7.15157315e-02,
          8.08289796e-02, 5.99962361e-02, 6.50488660e-02, 5.97269200e-02,
          5.44066206e-02, 6.55589700e-02, 8.32349360e-02, 1.00074559e-01,
          1.07277803e-01, 1.38622016e-01, 1.52866393e-01, 1.10375270e-01,
          1.53305024e-01, 1.11499079e-01, 1.08176850e-01, 2.01210603e-01,
          1.96542144e-01, 1.47060126e-01, 1.49047360e-01, 1.15865558e-01,
          1.35424018e-01, 1.62906557e-01, 1.51681274e-01, 1.30608350e-01,
          1.12227261e-01, 7.68037811e-02, 8.12568665e-02, 9.54938829e-02,
          9.10741612e-02, 9.34391916e-02, 8.91777575e-02, 1.05426222e-01,
          1.10882372e-01, 8.52526501e-02, 1.09449707e-01, 1.30287796e-01,
          1.43331453e-01, 1.42130956e-01, 1.28022417e-01, 1.31765142e-01,
          1.21582955e-01, 8.95728171e-02, 8.16945732e-02, 9.01358649e-02 ]
      - [ 1.69917688e-01, 2.04082042e-01, 1.49423391e-01, 1.53025284e-01,
          1.75627396e-01, 1.40783340e-01, 1.15200296e-01, 1.12019785e-01,
          1.43140525e-01, 1.53071359e-01, 1.54491737e-01, 1.37304530e-01,
          1.10615507e-01, 8.92916694e-02, 1.24579348e-01, 1.32745147e-01,
          1.22815110e-01, 7.58660883e-02, 7.65399486e-02, 8.69777501e-02,
          9.37091857e-02, 6.89766705e-02, 7.37468302e-02, 8.65073279e-02,
          7.34068230e-02, 7.99111649e-02, 9.27546471e-02, 1.05426513e-01,
          1.13989241e-01, 1.38911456e-01, 1.50142595e-01, 1.19274803e-01,
          1.25345334e-01, 1.22905120e-01, 1.16617382e-01, 1.59918666e-01,
          1.68834195e-01, 1.31103173e-01, 1.04677007e-01, 1.00326955e-01,
          1.18826449e-01, 1.44293591e-01, 1.43860936e-01, 1.35987848e-01,
          1.15597658e-01, 7.83942267e-02, 6.84921741e-02, 8.46494138e-02,
          9.91495773e-02, 1.09431922e-01, 1.26933351e-01, 1.70994252e-01,
          1.44393757e-01, 1.16815858e-01, 1.12215891e-01, 1.30558193e-01,
          1.30284086e-01, 1.53970033e-01, 1.49971560e-01, 1.53321147e-01,
          1.51315734e-01, 9.97087285e-02, 8.41701180e-02, 7.67464414e-02 ]
      - [ 1.56277150e-01, 1.01196148e-01, 1.83259279e-01, 2.30938360e-01,
          1.82718992e-01, 1.55670270e-01, 1.51740298e-01, 1.22545063e-01,
          1.25646323e-01, 1.36060074e-01, 1.57127395e-01, 1.70043647e-01,
          1.63444415e-01, 1.62594453e-01, 1.89100519e-01, 1.83921129e-01,
          5.47692217e-02, 2.34165229e-02, 2.10335311e-02, 2.13769954e-02,
          2.47416012e-02, 2.93128379e-02, 3.76558453e-02, 3.09652295e-02,
          2.77465712e-02, 3.92732769e-02, 5.05285636e-02, 8.05877596e-02,
          9.42988694e-02, 1.03130952e-01, 1.09424695e-01, 8.65745991e-02,
          9.57739353e-02, 9.87984911e-02, 1.28224552e-01, 1.75106063e-01,
          1.53793633e-01, 1.58667013e-01, 1.59210056e-01, 1.54855147e-01,
          1.58962190e-01, 1.29116789e-01, 1.13985740e-01, 1.15696855e-01,
          1.12418950e-01, 9.63205248e-02, 1.14114441e-01, 1.12299211e-01,
          1.25295907e-01, 1.05237067e-01, 9.13891196e-02, 9.22305882e-02,
          1.03420891e-01, 9.91958380e-02, 1.59472033e-01, 1.63056940e-01,
          1.46693662e-01, 1.07690878e-01, 9.27702487e-02, 1.12397574e-01,
          1.21575899e-01, 1.07134931e-01, 1.27859920e-01, 1.42320842e-01 ]
      - [ 1.35224551e-01, 1.39604524e-01, 2.13124380e-01, 2.26001292e-01,
          1.92408279e-01, 1.45258263e-01, 1.57070130e-01, 1.39038458e-01,
          1.51025310e-01, 1.59066454e-01, 1.76196292e-01, 1.57162011e-01,
          1.43569425e-01, 1.69872716e-01, 2.22690031e-01, 2.04190329e-01,
          3.36341113e-02, 2.48792190e-02, 1.72874145e-02, 1.42005617e-02,
          1.32453870e-02, 1.61226466e-02, 1.91028491e-02, 1.73111539e-02,
          2.59652250e-02, 3.59550938e-02, 4.88606766e-02, 7.65630007e-02,
          1.09562799e-01, 1.04675740e-01, 6.59370646e-02, 3.54690552e-02,
          1.09814696e-01, 1.22107580e-01, 1.32012650e-01, 7.63850287e-02,
          9.95066538e-02, 1.21660568e-01, 1.77159369e-01, 1.70312777e-01,
          1.55924454e-01, 1.35355473e-01, 1.24988578e-01, 1.06438607e-01,
          8.97925273e-02, 7.52920359e-02, 1.00464843e-01, 1.07303932e-01,
          1.45699158e-01, 1.06880434e-01, 8.32273141e-02, 7.69734308e-02,
          1.01767793e-01, 1.13333523e-01, 1.80589229e-01, 1.50208458e-01,
          1.26411930e-01, 9.82370451e-02, 8.04291517e-02, 8.91185328e-02,
          1.16795875e-01, 1.14236690e-01, 1.51053175e-01, 1.52249947e-01 ]
      - [ 1.12640403e-01, 1.41022220e-01, 2.08031237e-01, 2.38854006e-01,
          1.94831327e-01, 1.38460115e-01, 1.59057483e-01, 1.38783351e-01,
          1.43732250e-01, 1.57673150e-01, 1.77340403e-01, 1.60687804e-01,
          1.56839862e-01, 1.54577255e-01, 2.23881945e-01, 2.08686262e-01,
          2.72892136e-02, 2.73679793e-02, 2.41209418e-02, 1.97553169e-02,
          2.03058366e-02, 1.89851988e-02, 2.91844569e-02, 2.26925947e-02,
          2.64323056e-02, 3.71313915e-02, 4.23265286e-02, 7.51763955e-02,
          1.16472393e-01, 9.27969664e-02, 6.74211979e-02, 2.87157223e-02,
          1.09915003e-01, 1.30409405e-01, 1.19448625e-01, 8.37580487e-02,
          9.98536199e-02, 1.08562365e-01, 1.85141191e-01, 1.78075194e-01,
          1.38747573e-01, 1.22343689e-01, 1.29060417e-01, 1.10148519e-01,
          8.68086740e-02, 7.03673065e-02, 9.95039716e-02, 1.02948107e-01,
          1.52145654e-01, 1.16406597e-01, 9.11841169e-02, 8.99040774e-02,
          8.79201815e-02, 1.21180311e-01, 1.68881848e-01, 1.50973693e-01,
          1.41550764e-01, 9.35598910e-02, 8.76668766e-02, 9.38291326e-02,
          1.22779809e-01, 1.13256738e-01, 1.56282157e-01, 1.42252997e-01 ]
      - [ 1.38740823e-01, 1.29847035e-01, 1.81174889e-01, 2.24387407e-01,
          1.99101269e-01, 1.66703939e-01, 1.44499645e-01, 1.25699431e-01,
          1.36209205e-01, 1.43422633e-01, 1.75337628e-01, 1.71688154e-01,
          1.51610017e-01, 1.71006829e-01, 1.91795662e-01, 1.89214393e-01,
          3.28592360e-02, 3.10713127e-02, 2.30648201e-02, 2.62997765e-02,
          2.10427400e-02, 2.39370484e-02, 2.64171269e-02, 2.07534339e-02,
          2.61095762e-02, 2.86998097e-02, 3.80390249e-02, 7.98996091e-02,
          9.28491279e-02, 9.18999836e-02, 7.19429851e-02, 4.29579504e-02,
          1.23533331e-01, 1.13094740e-01, 1.08524971e-01, 1.14726305e-01,
          1.18376285e-01, 1.25562221e-01, 1.54864579e-01, 1.77555889e-01,
          1.55821651e-01, 1.14949353e-01, 1.08942315e-01, 1.20400324e-01,
          9.71774012e-02, 9.49550197e-02, 1.11204714e-01, 1.20696463e-01,
          1.51252404e-01, 1.17889434e-01, 1.04623809e-01, 1.23692468e-01,
          1.07684940e-01, 1.21393435e-01, 1.74415708e-01, 1.52854741e-01,
          1.21830843e-01, 1.04165569e-01, 1.04576446e-01, 1.28728405e-01,
          1.14347592e-01, 1.09987922e-01, 1.52814671e-01, 1.45643309e-01 ]
      - [ 1.42517135e-01, 1.27113387e-01, 1.75630718e-01, 2.28949219e-01,
          2.16754824e-01, 1.47387251e-01, 1.52645200e-01, 1.33292317e-01,
          1.31503657e-01, 1.43904507e-01, 1.78527415e-01, 1.73823342e-01,
          1.54885054e-01, 1.66811630e-01, 2.03314111e-01, 1.83701724e-01,
          2.62416843e-02, 2.13938914e-02, 2.61421520e-02, 2.33818591e-02,
          2.72368230e-02, 2.87753921e-02, 2.91152298e-02, 2.24852152e-02,
          2.73161139e-02, 2.39555947e-02, 4.11459096e-02, 7.84628391e-02,
          9.45214108e-02, 9.10174027e-02, 7.19290078e-02, 5.71676940e-02,
          1.14325829e-01, 1.04762070e-01, 1.03946216e-01, 1.24715656e-01,
          1.18650287e-01, 1.34205282e-01, 1.71371371e-01, 1.58289224e-01,
          1.52208880e-01, 1.21920593e-01, 1.18690379e-01, 1.11033820e-01,
          1.03622615e-01, 9.51333568e-02, 1.17481910e-01, 1.26782045e-01,
          1.53210253e-01, 1.19710051e-01, 9.38637778e-02, 9.02857557e-02,
          1.10481717e-01, 1.26268670e-01, 1.72066271e-01, 1.36933774e-01,
          1.37579143e-01, 1.07828498e-01, 1.04529381e-01, 1.00099698e-01,
          1.17562570e-01, 1.13788694e-01, 1.44998088e-01, 1.47583827e-01 ]
      - [ 1.31761119e-01, 1.32458717e-01, 1.95161253e-01, 2.21361071e-01,
          2.22940385e-01, 1.46190509e-01, 1.50266469e-01, 1.27432644e-01,
          1.35433212e-01, 1.52396202e-01, 1.77792788e-01, 1.72104225e-01,
          1.64491102e-01, 1.79607794e-01, 1.96691737e-01, 1.92514881e-01,
          3.86102796e-02, 3.33112106e-02, 2.77609974e-02, 2.00707465e-02,
          2.09583919e-02, 2.17079408e-02, 2.67364066e-02, 1.63997728e-02,
          2.51692124e-02, 2.77131889e-02, 3.62210460e-02, 7.74502456e-02,
          9.49686319e-02, 7.92632550e-02, 7.71497935e-02, 4.23826464e-02,
          1.24228112e-01, 1.04932040e-01, 9.87096131e-02, 1.04335189e-01,
          1.39469251e-01, 1.15645885e-01, 1.60427839e-01, 1.70728475e-01,
          1.57817706e-01, 1.10938735e-01, 1.12854041e-01, 1.07998975e-01,
          9.80954394e-02, 8.28598514e-02, 1.07072763e-01, 1.22954950e-01,
          1.52595192e-01, 1.13325961e-01, 9.29518640e-02, 8.88200328e-02,
          9.87074301e-02, 1.27432168e-01, 1.80662364e-01, 1.44770503e-01,
          1.40422598e-01, 1.00386940e-01, 8.95086899e-02, 9.92211774e-02,
          1.14446215e-01, 1.18985780e-01, 1.48740888e-01, 1.55182377e-01 ]
      - [ 1.31860226e-01, 1.20424569e-01, 2.10116401e-01, 2.17257828e-01,
          2.22888052e-01, 1.51990965e-01, 1.49125293e-01, 1.27222583e-01,
          1.37911752e-01, 1.47873834e-01, 1.80800587e-01, 1.75315708e-01,
          1.62605315e-01, 1.82807609e-01, 1.95371792e-01, 1.96202219e-01,
          3.49876359e-02, 3.71153504e-02, 2.28480697e-02, 2.39735246e-02,
          2.75209844e-02, 2.47465465e-02, 2.47258227e-02, 2.02319901e-02,
          2.16280390e-02, 2.84678247e-02, 2.85744406e-02, 7.01964870e-02,
          1.15545794e-01, 8.02627504e-02, 6.37159795e-02, 4.33935449e-02,
          1.10828638e-01, 1.09361261e-01, 1.10454269e-01, 1.10301122e-01,
          1.05007105e-01, 1.28708273e-01, 1.60920054e-01, 1.61329702e-01,
          1.60856783e-01, 1.19832486e-01, 1.12762637e-01, 1.05645694e-01,
          1.04003116e-01, 8.55550915e-02, 1.06538802e-01, 1.18944421e-01,
          1.50671542e-01, 1.12996578e-01, 9.14418474e-02, 8.73288810e-02,
          1.04468882e-01, 1.12395570e-01, 1.83725283e-01, 1.63950384e-01,
          1.23640977e-01, 9.37639698e-02, 8.57221335e-02, 1.02589756e-01,
          1.10676020e-01, 1.21142626e-01, 1.46525949e-01, 1.54979721e-01 ]
      - [ 1.45982042e-01, 1.28851712e-01, 1.92326501e-01, 2.19299212e-01,
          2.13171706e-01, 1.58547774e-01, 1.41435549e-01, 1.30074516e-01,
          1.35898039e-01, 1.52400270e-01, 1.70158610e-01, 1.79025248e-01,
          1.48669273e-01, 1.72014549e-01, 2.00195238e-01, 1.82385311e-01,
          3.28892246e-02, 2.42601279e-02, 1.95108708e-02, 2.93449759e-02,
          2.85908412e-02, 1.92561708e-02, 2.36392207e-02, 1.51431086e-02,
          2.48306859e-02, 2.40369402e-02, 3.33166048e-02, 7.64871612e-02,
          9.98364910e-02, 9.47928578e-02, 6.18138798e-02, 4.70579341e-02,
          1.15928613e-01, 1.15777440e-01, 9.62070972e-02, 1.02076806e-01,
          1.18765004e-01, 1.28129765e-01, 1.53719857e-01, 1.61009789e-01,
          1.67726666e-01, 1.18624866e-01, 1.14550717e-01, 1.06858991e-01,
          1.01549461e-01, 7.97441751e-02, 1.09498359e-01, 1.22206226e-01,
          1.47432029e-01, 1.16882339e-01, 1.01053596e-01, 9.39557627e-02,
          1.06744722e-01, 1.21402815e-01, 1.84095040e-01, 1.52706802e-01,
          1.40807211e-01, 1.04946263e-01, 9.09544751e-02, 1.04952492e-01,
          1.13519266e-01, 1.08377121e-01, 1.51368976e-01, 1.77054644e-01 ]
      - [ 1.62524477e-01, 2.19126776e-01, 1.81106210e-01, 1.68685049e-01,
          1.60837889e-01, 1.17887482e-01, 1.15340717e-01, 1.15910299e-01,
          1.46743655e-01, 1.74492821e-01, 1.74605593e-01, 1.38153553e-01,
          1.15151547e-01, 9.66813117e-02, 1.25310972e-01, 1.17680088e-01,
          8.77689570e-02, 5.18310666e-02, 5.21024950e-02, 7.70845562e-02,
          8.40733349e-02, 8.00366476e-02, 7.71582946e-02, 6.34731129e-02,
          6.19285218e-02, 7.56929144e-02, 8.27525780e-02, 1.04845747e-01,
          1.06834821e-01, 1.38421714e-01, 1.61839902e-01, 1.19044811e-01,
          1.17065810e-01, 1.23563886e-01, 1.13099925e-01, 1.86552972e-01,
          1.89746127e-01, 1.44136488e-01, 9.72191468e-02, 9.45887491e-02,
          1.13655284e-01, 1.44890919e-01, 1.59022346e-01, 1.38229162e-01,
          1.22636810e-01, 1.00936070e-01, 9.11770165e-02, 8.34868774e-02,
          9.86629426e-02, 1.09278791e-01, 1.08379848e-01, 1.59305885e-01,
          1.27784744e-01, 9.75670442e-02, 1.24356486e-01, 1.22350886e-01,
          1.37824580e-01, 1.36874586e-01, 1.37150168e-01, 1.34074673e-01,
          1.27151713e-01, 1.06625989e-01, 9.10885856e-02, 8.51796716e-02 ]
      - [ 1.46149486e-01, 2.18516380e-01, 1.84463888e-01, 1.67888239e-01,
          1.65145308e-01, 1.24693930e-01, 1.12672307e-01, 1.19913876e-01,
          1.46738142e-01, 1.76036656e-01, 1.76927269e-01, 1.38980702e-01,
          1.11143574e-01, 9.13860053e-02, 1.32803828e-01, 1.35035202e-01,
          9.73294377e-02, 5.54600433e-02, 5.91014549e-02, 6.91073611e-02,
          8.36084858e-02, 7.56402463e-02, 7.80725256e-02, 6.03683516e-02,
          6.28257841e-02, 6.92638233e-02, 8.25755373e-02, 9.91421193e-02,
          1.14392668e-01, 1.41238257e-01, 1.58699408e-01, 1.10314533e-01,
          1.17708795e-01, 1.21414281e-01, 1.26251772e-01, 1.80218831e-01,
          1.89805418e-01, 1.66838065e-01, 9.40202475e-02, 7.89468363e-02,
          1.00876004e-01, 1.46987483e-01, 1.63711995e-01, 1.42366111e-01,
          1.23586684e-01, 1.01572707e-01, 8.81906003e-02, 8.87205452e-02,
          9.14975926e-02, 1.12335950e-01, 1.04521185e-01, 1.45439312e-01,
          1.22392975e-01, 1.15237869e-01, 1.31716087e-01, 1.10527694e-01,
          1.31031737e-01, 1.42735630e-01, 1.35044590e-01, 1.36557952e-01,
          1.20375976e-01, 9.06856060e-02, 9.72506404e-02, 8.05157647e-02 ]
      - [ 1.53050750e-01, 2.29192108e-01, 1.84162542e-01, 1.78210393e-01,
          1.75115004e-01, 1.06681459e-01, 1.05998613e-01, 1.20433144e-01,
          1.53264046e-01, 1.79211825e-01, 1.74489766e-01, 1.45667255e-01,
          1.13173798e-01, 1.02129027e-01, 1.29984036e-01, 1.10813066e-01,
          7.81515613e-02, 4.79672216e-02, 5.32566570e-02, 6.48647323e-02,
          8.60831141e-02, 7.75302351e-02, 7.61045888e-02, 6.46970943e-02,
          6.30557686e-02, 6.98119774e-02, 8.41660500e-02, 9.95225236e-02,
          1.03327580e-01, 1.35623410e-01, 1.60834208e-01, 1.35482684e-01,
          1.09233201e-01, 1.23277672e-01, 1.21813774e-01, 1.70489535e-01,
          2.05431253e-01, 1.59394383e-01, 9.27178189e-02, 8.32015425e-02,
          1.01747893e-01, 1.49867654e-01, 1.54928267e-01, 1.48101881e-01,
          1.23059079e-01, 1.03142664e-01, 8.82603079e-02, 8.74878317e-02,
          9.38106403e-02, 1.09316215e-01, 9.94865298e-02, 1.61382422e-01,
          1.17291152e-01, 9.42630693e-02, 1.32746547e-01, 1.19140722e-01,
          1.18957885e-01, 1.48743555e-01, 1.31958529e-01, 1.34314522e-01,
          1.23530127e-01, 8.86853337e-02, 8.51255804e-02, 7.43406042e-02 ]
      - [ 1.59102514e-01, 2.18639329e-01, 1.88861296e-01, 1.78031370e-01,
          1.68370664e-01, 1.02583416e-01, 1.16392799e-01, 1.19787134e-01,
          1.55936480e-01, 1.75797671e-01, 1.71170160e-01, 1.45911202e-01,
          1.12006143e-01, 8.97227675e-02, 1.40704066e-01, 1.13702051e-01,
          7.09740520e-02, 5.16034327e-02, 5.45336194e-02, 6.97270036e-02,
          8.00986290e-02, 7.95172006e-02, 7.94946030e-02, 6.29694983e-02,
          6.13074116e-02, 7.05506355e-02, 7.70434216e-02, 9.85822827e-02,
          1.12660468e-01, 1.36355266e-01, 1.62229761e-01, 1.35056451e-01,
          1.14159793e-01, 1.25501588e-01, 1.24533407e-01, 1.80716202e-01,
          2.13870168e-01, 1.38162032e-01, 9.04582739e-02, 7.51534253e-02,
          1.13962166e-01, 1.50810689e-01, 1.52707145e-01, 1.46648347e-01,
          1.29002258e-01, 9.33527648e-02, 9.20965970e-02, 8.27297419e-02,
          9.34573561e-02, 1.13373175e-01, 1.07246131e-01, 1.50645092e-01,
          1.10063143e-01, 9.59010720e-02, 1.32561132e-01, 1.30291104e-01,
          1.29174590e-01, 1.32985502e-01, 1.30696625e-01, 1.39024496e-01,
          1.19887784e-01, 9.45015997e-02, 8.27087089e-02, 7.35508353e-02 ]
      - [ 1.63507581e-01, 2.16165200e-01, 1.83414057e-01, 1.72852054e-01,
          1.67714611e-01, 1.19687170e-01, 1.15989380e-01, 1.09995440e-01,
          1.46410346e-01, 1.79947823e-01, 1.75196081e-01, 1.46350533e-01,
          1.07453220e-01, 8.58686119e-02, 1.43255785e-01, 1.16646059e-01,
          6.46608770e-02, 4.40618545e-02, 5.28489500e-02, 6.48775324e-02,
          8.29910189e-02, 7.52006918e-02, 7.36286491e-02, 5.82725815e-02,
          5.90370186e-02, 6.81276321e-02, 8.27208459e-02, 9.56762433e-02,
          9.28468183e-02, 1.38883531e-01, 1.74499646e-01, 1.20899692e-01,
          1.11292496e-01, 1.27918184e-01, 1.37031853e-01, 1.73603162e-01,
          2.07710043e-01, 1.49648502e-01, 1.05263948e-01, 8.30679983e-02,
          1.08340554e-01, 1.41836882e-01, 1.68012142e-01, 1.45088255e-01,
          1.31856680e-01, 9.50608104e-02, 9.56418514e-02, 8.36270824e-02,
          9.63217616e-02, 1.13246858e-01, 1.00233659e-01, 1.48893788e-01,
          1.14461772e-01, 1.06516279e-01, 1.31880358e-01, 1.28746897e-01,
          1.27163932e-01, 1.27104938e-01, 1.32610098e-01, 1.45039126e-01,
          1.22404732e-01, 8.94600302e-02, 8.48274678e-02, 7.55430683e-02 ]
      - [ 2.03843608e-01, 1.52766943e-01, 1.32529840e-01, 1.85601309e-01,
          1.75242513e-01, 1.43478826e-01, 1.25807211e-01, 1.41312316e-01,
          1.62371129e-01, 1.55423343e-01, 1.30844414e-01, 1.16543092e-01,
          1.16420701e-01, 1.16400249e-01, 1.38070121e-01, 1.83756948e-01,
          7.23907501e-02, 3.74596864e-02, 4.47952077e-02, 5.62953465e-02,
          4.59427536e-02, 3.99033539e-02, 4.88205180e-02, 4.43782508e-02,
          4.98577729e-02, 5.62226214e-02, 6.76210970e-02, 8.67601708e-02,
          1.09797984e-01, 1.42714679e-01, 1.64064661e-01, 1.13734894e-01,
          1.93445042e-01, 1.54466435e-01, 1.56296283e-01, 1.81248412e-01,
          1.73411891e-01, 1.59417152e-01, 1.37539089e-01, 1.41428545e-01,
          1.68263629e-01, 1.89430982e-01, 1.43644974e-01, 1.26548737e-01,
          9.64414105e-02, 8.14913288e-02, 6.86147809e-02, 8.11898708e-02,
          9.01571289e-02, 8.12858045e-02, 7.72105604e-02, 8.76129493e-02,
          9.07450765e-02, 8.48265588e-02, 1.20479181e-01, 1.39060989e-01,
          1.45003334e-01, 1.22535549e-01, 1.15254238e-01, 1.27118036e-01,
          1.27388656e-01, 9.59994644e-02, 9.10744518e-02, 8.37911814e-02 ]
      - [ 2.00900495e-01, 2.00453728e-01, 1.51873395e-01, 2.06845179e-01,
          2.05425888e-01, 1.22974880e-01, 1.30002916e-01, 1.35497198e-01,
          1.62973642e-01, 1.75828174e-01, 1.83377758e-01, 1.62538409e-01,
          1.45803958e-01, 1.63190216e-01, 1.67865798e-01, 1.64021149e-01,
          1.19557291e-01, 6.42254800e-02, 5.71986213e-02, 7.40116537e-02,
          7.99497813e-02, 5.80115579e-02, 7.58369863e-02, 5.59919626e-02,
          5.17199710e-02, 5.09451367e-02, 5.87639734e-02, 6.65996745e-02,
          8.70167837e-02, 1.36931792e-01, 1.52022272e-01, 1.29996195e-01,
          1.02245077e-01, 1.19702734e-01, 1.19205624e-01, 1.60781011e-01,
          1.24477081e-01, 1.17817849e-01, 1.19432054e-01, 1.28484860e-01,
          1.39859542e-01, 1.51336700e-01, 1.36743501e-01, 1.38055459e-01,
          1.04783297e-01, 7.43173137e-02, 7.20129609e-02, 7.09836930e-02,
          7.71284625e-02, 7.97193646e-02, 8.54339451e-02, 1.08653642e-01,
          1.39640167e-01, 1.46937996e-01, 1.65841818e-01, 1.23072982e-01,
          1.14111461e-01, 1.02867573e-01, 9.07154009e-02, 9.36005488e-02,
          1.00957990e-01, 7.38289356e-02, 8.56356248e-02, 6.75838068e-02 ]
      - [ 1.98354498e-01, 2.09029511e-01, 1.65301368e-01, 2.01616332e-01,
          1.99054167e-01, 1.26174569e-01, 1.28369495e-01, 1.32619515e-01,
          1.75508201e-01, 1.75802961e-01, 1.81495935e-01, 1.63662642e-01,
          1.38622373e-01, 1.82325855e-01, 1.61646649e-01, 1.45849138e-01,
          1.09635636e-01, 4.83673140e-02, 5.72173782e-02, 7.98911229e-02,
          8.76509994e-02, 6.51456639e-02, 6.38659298e-02, 5.31981438e-02,
          5.27386405e-02, 5.03753610e-02, 5.22003025e-02, 6.63417205e-02,
          7.59257600e-02, 1.18862674e-01, 1.73617810e-01, 1.35045290e-01,
          9.26066637e-02, 1.17137380e-01, 1.17083713e-01, 1.81066319e-01,
          1.26135066e-01, 1.11013263e-01, 1.14236772e-01, 1.17482707e-01,
          1.67624906e-01, 1.54540375e-01, 1.36286944e-01, 1.25807434e-01,
          1.09706812e-01, 7.59524032e-02, 7.59867132e-02, 7.77220353e-02,
          6.83112442e-02, 7.66131058e-02, 8.21758658e-02, 1.05198167e-01,
          1.15743436e-01, 1.46702096e-01, 1.81368306e-01, 1.26616463e-01,
          1.07754141e-01, 9.21519324e-02, 8.70019719e-02, 9.27362964e-02,
          9.65060666e-02, 7.26552308e-02, 8.42731223e-02, 6.68418407e-02 ]
      - [ 1.96355686e-01, 2.08539397e-01, 1.42559767e-01, 1.91647798e-01,
          2.11532742e-01, 1.34063423e-01, 1.21330015e-01, 1.26062497e-01,
          1.65898219e-01, 1.79914594e-01, 1.81858629e-01, 1.60089403e-01,
          1.49980649e-01, 1.72449827e-01, 1.57285437e-01, 1.61538064e-01,
          1.05511822e-01, 6.99436143e-02, 5.33456877e-02, 8.47202241e-02,
          8.83114040e-02, 6.92829788e-02, 7.40220323e-02, 6.45496100e-02,
          5.08241691e-02, 5.53173460e-02, 4.79133725e-02, 6.71511516e-02,
          7.72309378e-02, 1.30739391e-01, 1.75278515e-01, 1.31233454e-01,
          1.05785757e-01, 1.22536421e-01, 1.18147090e-01, 1.72061130e-01,
          1.33342803e-01, 1.22079834e-01, 1.08301334e-01, 1.31478578e-01,
          1.39869332e-01, 1.67562783e-01, 1.33232325e-01, 1.28882810e-01,
          1.02475263e-01, 7.08204955e-02, 6.67595789e-02, 7.69317523e-02,
          7.30564445e-02, 7.36434832e-02, 8.79653469e-02, 1.03784278e-01,
          1.22781217e-01, 1.42293751e-01, 1.73947036e-01, 1.19774312e-01,
          1.10148974e-01, 9.51014236e-02, 8.77185017e-02, 1.02218814e-01,
          9.25200656e-02, 7.42656142e-02, 8.26333836e-02, 7.33881220e-02 ]
      - [ 2.13253975e-01, 2.01098472e-01, 1.59358248e-01, 1.94588676e-01,
          2.04250425e-01, 1.33174717e-01, 1.34886891e-01, 1.32023022e-01,
          1.68364495e-01, 1.85235441e-01, 1.85553238e-01, 1.55772001e-01,
          1.58545479e-01, 1.63767383e-01, 1.72881410e-01, 1.61534071e-01,
          1.00591742e-01, 6.30427301e-02, 5.88088930e-02, 8.15708116e-02,
          8.44250172e-02, 6.45672306e-02, 6.74484149e-02, 5.50842322e-02,
          5.13413809e-02, 5.21368980e-02, 5.12796789e-02, 6.56802356e-02,
          6.88290820e-02, 1.09796852e-01, 1.89089388e-01, 1.28458172e-01,
          1.03440143e-01, 1.18197218e-01, 1.10371955e-01, 1.61761567e-01,
          1.43077224e-01, 9.69073027e-02, 1.29617870e-01, 1.16834387e-01,
          1.52173996e-01, 1.55455887e-01, 1.27294928e-01, 1.25591442e-01,
          1.01127081e-01, 7.37601519e-02, 6.23607896e-02, 7.26505816e-02,
          8.01082850e-02, 8.04872364e-02, 8.16201493e-02, 9.17010009e-02,
          1.23877123e-01, 1.45973489e-01, 1.74358159e-01, 1.35781541e-01,
          1.02872670e-01, 9.13423076e-02, 8.56936052e-02, 9.86556932e-02,
          9.50566977e-02, 7.24258423e-02, 7.92791694e-02, 6.72778860e-02 ]
      - [ 2.08702013e-01, 1.78103313e-01, 1.18078828e-01, 1.86500236e-01,
          1.88906744e-01, 1.36022300e-01, 1.19860515e-01, 1.14894941e-01,
          1.47020981e-01, 1.43917799e-01, 1.47144139e-01, 1.34745836e-01,
          1.09014958e-01, 9.29768309e-02, 1.24234147e-01, 1.61821827e-01,
          9.25192907e-02, 7.22911134e-02, 5.70256822e-02, 6.83706328e-02,
          7.26058707e-02, 4.99041565e-02, 5.35749756e-02, 4.97427694e-02,
          5.09674214e-02, 5.17331436e-02, 6.83192685e-02, 9.38797444e-02,
          1.41934738e-01, 1.68234125e-01, 1.48394316e-01, 1.10574238e-01,
          1.04224548e-01, 1.28883198e-01, 1.32467389e-01, 1.91062599e-01,
          1.81173518e-01, 1.57698214e-01, 1.07858591e-01, 9.99804661e-02,
          1.18493877e-01, 1.42006025e-01, 1.48709789e-01, 1.46058023e-01,
          1.36841804e-01, 7.50378817e-02, 5.73051311e-02, 5.98803014e-02,
          8.37126598e-02, 9.03816745e-02, 1.22114457e-01, 1.43592343e-01,
          1.29404321e-01, 1.17518678e-01, 1.21782675e-01, 1.25085354e-01,
          1.38237104e-01, 1.51590645e-01, 1.64683059e-01, 1.48459226e-01,
          1.31115764e-01, 9.92990360e-02, 8.65085721e-02, 8.02101493e-02 ]
      - [ 2.26476818e-01, 1.43294513e-01, 9.16905329e-02, 1.84692666e-01,
          2.07676068e-01, 1.64000064e-01, 1.33628368e-01, 1.19836688e-01,
          1.27308279e-01, 1.34270743e-01, 1.47555262e-01, 1.38222486e-01,
          1.22594826e-01, 9.63093191e-02, 1.36427268e-01, 1.83968455e-01,
          8.72948319e-02, 5.33858240e-02, 4.37433384e-02, 5.68025187e-02,
          5.17041050e-02, 4.33462597e-02, 4.20240238e-02, 4.17913757e-02,
          3.84043120e-02, 4.74338904e-02, 6.07524961e-02, 1.07476562e-01,
          1.35579228e-01, 1.51196182e-01, 1.87770382e-01, 1.05338909e-01,
          9.62148756e-02, 1.24107204e-01, 1.12067834e-01, 2.42670134e-01,
          2.03774482e-01, 1.60399064e-01, 1.10650226e-01, 1.18494406e-01,
          1.29373133e-01, 1.51157081e-01, 1.52718753e-01, 1.41346231e-01,
          1.19229622e-01, 6.99738935e-02, 6.73073977e-02, 6.83865100e-02,
          7.65727609e-02, 7.94851631e-02, 8.16312060e-02, 9.00106430e-02,
          1.00994557e-01, 1.00151829e-01, 1.19495533e-01, 1.26841262e-01,
          1.44303501e-01, 1.44163296e-01, 1.38724223e-01, 1.49125651e-01,
          1.36386663e-01, 9.22619551e-02, 8.78973603e-02, 7.05310702e-02 ]
      - [ 2.45143637e-01, 1.34923622e-01, 1.09217197e-01, 1.85983628e-01,
          1.99133426e-01, 1.58124670e-01, 1.35513589e-01, 1.24106377e-01,
          1.37812182e-01, 1.46859884e-01, 1.41908213e-01, 1.38000607e-01,
          1.15462832e-01, 1.01350002e-01, 1.38080686e-01, 1.89530000e-01,
          9.14662108e-02, 6.35106489e-02, 4.30975035e-02, 5.29358611e-02,
          5.12045920e-02, 4.65126745e-02, 5.02533428e-02, 3.89036238e-02,
          3.87372784e-02, 4.62252609e-02, 5.84139824e-02, 9.51195583e-02,
          1.34175211e-01, 1.70377076e-01, 1.65132344e-01, 1.04786359e-01,
          1.02943823e-01, 1.25212327e-01, 1.10309482e-01, 2.29991063e-01,
          2.15774000e-01, 1.47942498e-01, 1.09148562e-01, 1.31906569e-01,
          1.33688778e-01, 1.56487316e-01, 1.40788540e-01, 1.42245322e-01,
          1.16865836e-01, 6.85634091e-02, 6.06876537e-02, 7.16625303e-02,
          7.52210766e-02, 7.94948339e-02, 7.86520094e-02, 8.22439939e-02,
          9.51046199e-02, 1.02832496e-01, 1.26129046e-01, 1.19285658e-01,
          1.42313793e-01, 1.43629462e-01, 1.35125846e-01, 1.42306671e-01,
          1.34067968e-01, 9.11344811e-02, 8.12396333e-02, 7.42637590e-02 ]
      - [ 1.90199614e-01, 1.30076975e-01, 1.20213032e-01, 2.14633301e-01,
          2.06544802e-01, 1.36664003e-01, 1.23034969e-01, 1.34601191e-01,
          1.37004226e-01, 1.37151539e-01, 1.44747183e-01, 1.40053302e-01,
          1.35086566e-01, 1.43333182e-01, 1.47339344e-01, 1.64913163e-01,
          7.96772540e-02, 4.86591682e-02, 3.97549234e-02, 4.59090285e-02,
          4.54609208e-02, 5.14993295e-02, 5.88378385e-02, 5.08437715e-02,
          4.09503654e-02, 4.78313379e-02, 6.56325072e-02, 9.00376216e-02,
          1.18983179e-01, 1.60475239e-01, 1.46734849e-01, 9.85932723e-02,
          1.04690634e-01, 1.00674562e-01, 1.02001585e-01, 2.34777600e-01,
          1.99951425e-01, 1.57604769e-01, 1.39436126e-01, 1.44449025e-01,
          1.36873960e-01, 1.19657181e-01, 1.24466658e-01, 1.34869874e-01,
          1.37550384e-01, 1.03209645e-01, 1.05158962e-01, 1.00555629e-01,
          9.70996320e-02, 8.38683695e-02, 8.55765492e-02, 9.38298628e-02,
          1.00087002e-01, 8.44457597e-02, 1.28571272e-01, 1.37044042e-01,
          1.49887800e-01, 1.28548250e-01, 1.15256622e-01, 1.34619310e-01,
          1.38012111e-01, 1.03264585e-01, 1.02300756e-01, 1.01924434e-01 ]
      - [ 1.63604185e-01, 1.27738208e-01, 1.43844649e-01, 2.18845382e-01,
          2.00322002e-01, 1.44615188e-01, 1.50491506e-01, 1.46867603e-01,
          1.48796186e-01, 1.51153103e-01, 1.58874214e-01, 1.51658267e-01,
          1.52736545e-01, 1.60816982e-01, 1.51654556e-01, 1.68919742e-01,
          7.89988786e-02, 3.86252962e-02, 3.70401666e-02, 4.49511446e-02,
          5.29953316e-02, 6.01756833e-02, 6.10202961e-02, 5.70184588e-02,
          5.04044183e-02, 5.23674525e-02, 6.00433499e-02, 8.33446234e-02,
          1.01250723e-01, 1.46255344e-01, 1.37599960e-01, 1.23069555e-01,
          1.07263789e-01, 1.03381336e-01, 1.13955386e-01, 1.82310373e-01,
          1.99730426e-01, 1.40269801e-01, 1.35828674e-01, 1.45668730e-01,
          1.54013589e-01, 1.21863991e-01, 1.19110346e-01, 1.24908015e-01,
          1.23250656e-01, 1.12157270e-01, 9.76711661e-02, 9.91533175e-02,
          1.04212426e-01, 9.29427519e-02, 8.96250531e-02, 8.92676637e-02,
          9.70858932e-02, 9.17321444e-02, 1.43781066e-01, 1.44086704e-01,
          1.53211236e-01, 1.09046601e-01, 9.37481001e-02, 1.17874041e-01,
          1.22758403e-01, 1.02364562e-01, 1.07299924e-01, 9.99765843e-02 ]
      - [ 1.48214832e-01, 1.70248523e-01, 1.54795587e-01, 1.64372474e-01,
          1.48419112e-01, 1.51785329e-01, 1.60761252e-01, 1.62909925e-01,
          1.55862734e-01, 1.25581041e-01, 1.06918223e-01, 1.05787933e-01,
          1.32471398e-01, 1.59068465e-01, 2.07520425e-01, 1.85074911e-01,
          3.82032134e-02, 2.64992658e-02, 4.05185372e-02, 5.85995726e-02,
          5.31054549e-02, 6.36765808e-02, 3.13609876e-02, 2.19179224e-02,
          3.08043137e-02, 3.67756896e-02, 4.13549878e-02, 6.99219480e-02,
          1.08149707e-01, 1.34317726e-01, 1.36483893e-01, 6.28408790e-02,
          1.03572547e-01, 7.25003257e-02, 6.11259006e-02, 9.54396874e-02,
          1.45591736e-01, 1.57688424e-01, 2.07940042e-01, 1.98753953e-01,
          1.57859683e-01, 1.10971592e-01, 8.26771408e-02, 7.83184320e-02,
          8.74747038e-02, 1.03716947e-01, 1.70958281e-01, 1.90481022e-01,
          1.45581707e-01, 1.24132179e-01, 1.12465434e-01, 1.08676091e-01,
          1.24076821e-01, 1.01461403e-01, 1.18519731e-01, 1.48660824e-01,
          1.58027858e-01, 1.35046780e-01, 1.07521713e-01, 1.03728257e-01,
          1.25105172e-01, 1.02641970e-01, 1.21284083e-01, 1.41027138e-01 ]
      - [ 1.56737983e-01, 1.51586920e-01, 1.53947607e-01, 1.49424642e-01,
          1.69969410e-01, 1.55530736e-01, 1.68291971e-01, 1.59546465e-01,
          1.69833556e-01, 1.41414970e-01, 9.81786549e-02, 8.36823583e-02,
          1.16503589e-01, 1.49618849e-01, 2.19404817e-01, 1.93373352e-01,
          3.93983684e-02, 3.14226747e-02, 4.03098091e-02, 6.79010600e-02,
          7.25547224e-02, 6.65020347e-02, 4.99753095e-02, 3.46325897e-02,
          3.36990654e-02, 4.13977876e-02, 5.99422157e-02, 7.18044788e-02,
          1.27691120e-01, 1.53512731e-01, 1.54904217e-01, 8.41882676e-02,
          1.07961230e-01, 7.81062320e-02, 7.45546743e-02, 9.40913558e-02,
          1.31521672e-01, 1.54049963e-01, 1.95355222e-01, 1.83983311e-01,
          1.61671802e-01, 1.11811779e-01, 7.72168413e-02, 6.30661771e-02,
          6.74374849e-02, 8.39171410e-02, 1.46775156e-01, 1.72241688e-01,
          1.38405398e-01, 1.21444300e-01, 1.05719283e-01, 1.11089252e-01,
          1.26848057e-01, 9.65171456e-02, 1.31043971e-01, 1.47096232e-01,
          1.71961367e-01, 1.36022747e-01, 1.04080401e-01, 1.05099127e-01,
          1.17133103e-01, 1.08859688e-01, 1.21512286e-01, 1.39174312e-01 ]
      - [ 1.80223957e-01, 1.76329345e-01, 1.42466158e-01, 1.50343716e-01,
          1.39958203e-01, 1.53920546e-01, 1.38307407e-01, 1.27887100e-01,
          1.25153616e-01, 1.42921999e-01, 1.47267237e-01, 1.10815234e-01,
          1.27913594e-01, 1.24258898e-01, 1.35933980e-01, 1.53508142e-01,
          1.30384102e-01, 1.19128212e-01, 7.18385130e-02, 7.50958845e-02,
          8.28242302e-02, 9.03133750e-02, 7.91708902e-02, 8.13611746e-02,
          9.98228341e-02, 8.51256102e-02, 7.71341249e-02, 9.11715552e-02,
          9.90786552e-02, 1.16978049e-01, 1.41445637e-01, 1.38771057e-01,
          1.25705525e-01, 1.41553938e-01, 1.03416376e-01, 1.18781999e-01,
          1.37158573e-01, 1.79933935e-01, 1.26569152e-01, 1.15301043e-01,
          1.29592940e-01, 1.42535612e-01, 1.38943151e-01, 1.13914579e-01,
          1.14827655e-01, 8.74646604e-02, 8.03867429e-02, 9.17536393e-02,
          1.08475141e-01, 1.14759572e-01, 1.21888973e-01, 1.41040549e-01,
          1.40452981e-01, 1.32067427e-01, 1.19100869e-01, 1.26140729e-01,
          1.26301810e-01, 1.50275275e-01, 1.56432092e-01, 1.33468732e-01,
          1.45985305e-01, 1.12552211e-01, 9.01903510e-02, 1.02894537e-01 ]
      - [ 2.05161616e-01, 1.54786542e-01, 1.45150438e-01, 1.43944532e-01,
          1.61377832e-01, 1.61658496e-01, 1.27177864e-01, 1.24271691e-01,
          1.38111860e-01, 1.45585120e-01, 1.24828301e-01, 1.11219727e-01,
          1.05792314e-01, 1.19958907e-01, 1.58365980e-01, 1.70409217e-01,
          1.19343914e-01, 7.02906922e-02, 7.42639750e-02, 6.97215647e-02,
          8.49774778e-02, 9.58366767e-02, 8.13891813e-02, 7.69790038e-02,
          7.23585412e-02, 6.80458397e-02, 6.70045614e-02, 7.97298104e-02,
          1.00411363e-01, 1.56162173e-01, 1.67032629e-01, 1.39756307e-01,
          1.49177954e-01, 9.95264277e-02, 7.21836463e-02, 1.18097804e-01,
          1.23783693e-01, 1.75614744e-01, 1.53167188e-01, 1.30212367e-01,
          1.48242429e-01, 1.31962299e-01, 1.15368649e-01, 1.08527653e-01,
          1.05186865e-01, 8.00338462e-02, 9.17854309e-02, 8.66048634e-02,
          1.59567550e-01, 1.20190673e-01, 1.18048668e-01, 1.11143723e-01,
          1.17539652e-01, 1.17005043e-01, 1.37396738e-01, 1.63833529e-01,
          1.72596216e-01, 1.57185242e-01, 1.34386063e-01, 1.00989521e-01,
          1.02297828e-01, 8.20801482e-02, 1.00510530e-01, 1.18600644e-01 ]
      - [ 1.44544929e-01, 1.40040308e-01, 1.43401697e-01, 1.55109361e-01,
          1.59749359e-01, 1.23642497e-01, 1.49076909e-01, 1.65452272e-01,
          1.61251158e-01, 1.31348997e-01, 1.15457803e-01, 1.01889029e-01,
          1.20156690e-01, 1.31698400e-01, 1.95321888e-01, 1.85725316e-01,
          7.70672932e-02, 7.32546672e-02, 6.55458346e-02, 4.86269817e-02,
          6.62292391e-02, 8.00370723e-02, 5.84564358e-02, 5.75318635e-02,
          6.67605102e-02, 5.70439734e-02, 5.68376668e-02, 8.26743245e-02,
          1.06292479e-01, 1.22363903e-01, 1.45811096e-01, 1.09926231e-01,
          1.23834088e-01, 8.87277052e-02, 8.27164352e-02, 1.19432092e-01,
          1.18102141e-01, 1.47970960e-01, 1.85720161e-01, 1.68894351e-01,
          1.73639461e-01, 1.25452489e-01, 1.02786444e-01, 7.56161734e-02,
          8.67234394e-02, 8.98321792e-02, 1.41801089e-01, 1.79052994e-01,
          1.64623350e-01, 1.15599588e-01, 9.38552767e-02, 9.65797901e-02,
          1.14411473e-01, 1.12490453e-01, 1.51371971e-01, 1.62514746e-01,
          1.69853166e-01, 1.50477499e-01, 1.20012619e-01, 1.05556689e-01,
          1.04448177e-01, 9.84082073e-02, 1.23152114e-01, 1.43607497e-01 ]
      - [ 1.10243410e-01, 1.03289716e-01, 1.52856320e-01, 2.01480463e-01,
          1.91699788e-01, 1.56469047e-01, 1.43911630e-01, 1.29966527e-01,
          1.29840225e-01, 1.20476611e-01, 1.18731454e-01, 1.26124293e-01,
          1.66181177e-01, 2.00553060e-01, 2.06539661e-01, 1.67592734e-01,
          7.05683529e-02, 5.19488156e-02, 1.53514892e-02, 1.52797373e-02,
          1.09519232e-02, 7.39765493e-03, 1.13862939e-02, 1.85968745e-02,
          1.69195421e-02, 1.65657140e-02, 2.03548558e-02, 4.61661145e-02,
          8.52241516e-02, 9.44824442e-02, 7.05630258e-02, 7.97997117e-02,
          9.98496562e-02, 8.30365121e-02, 1.03515230e-01, 1.45125419e-01,
          1.86237007e-01, 1.84475422e-01, 1.74658880e-01, 1.53731495e-01,
          1.56785280e-01, 1.18214346e-01, 1.02314182e-01, 8.46819058e-02,
          1.04922973e-01, 9.70326960e-02, 1.48561627e-01, 1.60833493e-01,
          1.43469214e-01, 1.40179589e-01, 1.02908686e-01, 1.00257896e-01,
          1.18359447e-01, 1.09912314e-01, 1.35388300e-01, 1.53268084e-01,
          1.70959085e-01, 1.55611441e-01, 1.18329465e-01, 1.15155041e-01,
          1.34691060e-01, 1.17567763e-01, 1.29704908e-01, 1.43701464e-01 ]
      - [ 1.36509091e-01, 1.27681553e-01, 1.78333089e-01, 1.81563705e-01,
          1.75531223e-01, 1.66977540e-01, 1.38585567e-01, 1.49457216e-01,
          1.43209010e-01, 1.27903432e-01, 1.24448933e-01, 1.18504159e-01,
          1.55065283e-01, 1.79114372e-01, 2.06115395e-01, 1.74960822e-01,
          2.04545837e-02, 1.48090776e-02, 7.06953928e-03, 1.01024555e-02,
          7.36371474e-03, 2.69669574e-03, 9.10713430e-03, 1.20259607e-02,
          1.51685858e-02, 1.73992589e-02, 2.37053111e-02, 4.63120751e-02,
          1.05500169e-01, 1.25767186e-01, 8.70898440e-02, 3.01389303e-02,
          1.00672357e-01, 8.96623582e-02, 8.77415836e-02, 1.40328243e-01,
          1.77743003e-01, 1.89939141e-01, 2.01788336e-01, 1.73449814e-01,
          1.68610752e-01, 1.18603989e-01, 9.66741294e-02, 9.08275172e-02,
          9.03419778e-02, 1.07241221e-01, 1.60474524e-01, 1.82304874e-01,
          1.46738008e-01, 1.21959724e-01, 9.35375169e-02, 8.77671540e-02,
          9.89260077e-02, 7.77216032e-02, 1.15878053e-01, 1.48780450e-01,
          1.76687583e-01, 1.29999682e-01, 9.96993780e-02, 1.12710036e-01,
          1.29111201e-01, 1.07917584e-01, 1.31379426e-01, 1.45985678e-01 ]
      - [ 1.83589339e-01, 1.40814885e-01, 1.45027354e-01, 1.76190183e-01,
          1.94614530e-01, 1.45799786e-01, 1.41019136e-01, 1.19886875e-01,
          1.33545622e-01, 1.28197640e-01, 1.34316221e-01, 1.34377941e-01,
          1.27580270e-01, 1.58120796e-01, 1.71459258e-01, 1.62064821e-01,
          1.23841226e-01, 9.19980258e-02, 6.27527833e-02, 5.90674318e-02,
          5.02575003e-02, 7.03541338e-02, 5.58882207e-02, 6.76188171e-02,
          6.13420196e-02, 5.60215786e-02, 6.61085770e-02, 8.53415057e-02,
          1.28868908e-01, 1.38580471e-01, 1.15227699e-01, 1.12148702e-01,
          1.19864643e-01, 1.12765759e-01, 1.26437798e-01, 1.38428181e-01,
          1.83509871e-01, 1.84535071e-01, 1.46089807e-01, 1.23683423e-01,
          1.38390258e-01, 1.39248267e-01, 1.26940176e-01, 1.10664204e-01,
          1.02539927e-01, 8.12284276e-02, 9.30448025e-02, 1.03506416e-01,
          1.20715566e-01, 1.05473183e-01, 9.83649418e-02, 9.96929556e-02,
          1.18580930e-01, 1.08400673e-01, 1.27378777e-01, 1.22067712e-01,
          1.52962044e-01, 1.61288410e-01, 1.35802940e-01, 1.33017793e-01,
          1.30544692e-01, 1.04175106e-01, 1.02079056e-01, 1.04741089e-01 ]
      - [ 1.87583074e-01, 1.57160878e-01, 1.49299741e-01, 1.66136622e-01,
          1.69629499e-01, 1.53556332e-01, 1.47048220e-01, 1.53639838e-01,
          1.56578228e-01, 1.40220031e-01, 1.13535345e-01, 1.16874360e-01,
          1.18184827e-01, 1.40877321e-01, 1.78432822e-01, 2.10714549e-01,
          1.18255667e-01, 6.15331456e-02, 3.52054909e-02, 3.65524776e-02,
          4.98203970e-02, 4.96983416e-02, 5.49001507e-02, 6.97541907e-02,
          6.58709258e-02, 5.64269200e-02, 6.27928674e-02, 8.12436789e-02,
          9.98076349e-02, 1.38307497e-01, 1.56381831e-01, 1.25998646e-01,
          1.22708872e-01, 9.34285447e-02, 7.61573985e-02, 1.19343542e-01,
          1.67500451e-01, 1.77310839e-01, 1.58809170e-01, 1.50213346e-01,
          1.65682688e-01, 1.34936407e-01, 1.11824937e-01, 1.09003544e-01,
          9.15967375e-02, 8.94946009e-02, 1.16831429e-01, 1.30297437e-01,
          1.10703789e-01, 9.30935889e-02, 1.10616229e-01, 1.03617474e-01,
          1.10499933e-01, 1.00879088e-01, 1.29529849e-01, 1.49465054e-01,
          1.57853946e-01, 1.50591731e-01, 1.16298586e-01, 1.07308142e-01,
          1.08294725e-01, 9.36673284e-02, 1.02707580e-01, 1.18009083e-01 ]
      - [ 1.50184825e-01, 1.34864092e-01, 1.62070617e-01, 2.02759981e-01,
          1.79167345e-01, 1.34515807e-01, 1.33932412e-01, 1.26656175e-01,
          1.36539087e-01, 1.29708409e-01, 1.25401512e-01, 1.24225236e-01,
          1.26297489e-01, 1.81699738e-01, 1.71111897e-01, 1.38734654e-01,
          9.44266617e-02, 5.41067198e-02, 2.22942047e-02, 2.04502083e-02,
          2.80180071e-02, 3.67651805e-02, 2.96687558e-02, 2.86756847e-02,
          3.08303740e-02, 4.09953520e-02, 4.50627990e-02, 6.56672269e-02,
          1.18300885e-01, 1.58325091e-01, 1.47121295e-01, 1.08389266e-01,
          1.03912927e-01, 7.95548782e-02, 8.66088495e-02, 1.22457251e-01,
          1.98031306e-01, 1.96093813e-01, 1.63795024e-01, 1.27488092e-01,
          1.63212806e-01, 1.29964575e-01, 9.92550105e-02, 1.02208257e-01,
          1.22043960e-01, 1.20056435e-01, 1.40569106e-01, 1.38497829e-01,
          1.42246068e-01, 1.00457706e-01, 1.05271146e-01, 9.73678529e-02,
          1.27189308e-01, 1.07894711e-01, 1.45869553e-01, 1.50095016e-01,
          1.57595813e-01, 1.41670838e-01, 1.14902571e-01, 1.14581287e-01,
          1.42953962e-01, 1.13010108e-01, 1.06999256e-01, 1.21238269e-01 ]
      - [ 1.61705256e-01, 1.50168478e-01, 1.68374941e-01, 1.70658514e-01,
          1.53562799e-01, 1.49558872e-01, 1.39732540e-01, 1.33160949e-01,
          1.35246083e-01, 1.35311663e-01, 1.23321958e-01, 1.19040377e-01,
          1.21570431e-01, 1.49847835e-01, 1.87581018e-01, 1.68324053e-01,
          9.23981592e-02, 7.12210909e-02, 5.94858266e-02, 7.27545470e-02,
          7.41908103e-02, 7.18082190e-02, 5.59730381e-02, 6.03235886e-02,
          4.90654632e-02, 5.39561063e-02, 6.46406487e-02, 7.68994316e-02,
          1.10340767e-01, 1.37393042e-01, 1.73232198e-01, 1.16456687e-01,
          1.02248289e-01, 9.10098925e-02, 1.02647997e-01, 1.46902412e-01,
          1.46894693e-01, 1.68015689e-01, 1.78077981e-01, 1.31108031e-01,
          1.49889931e-01, 1.37513444e-01, 1.14471212e-01, 1.06163137e-01,
          1.17765747e-01, 1.04817972e-01, 1.16886377e-01, 1.14555635e-01,
          1.10108301e-01, 1.09023273e-01, 1.19080298e-01, 1.13819897e-01,
          1.23148173e-01, 1.29612714e-01, 1.18407167e-01, 1.50994927e-01,
          1.68157324e-01, 1.49025932e-01, 1.25085443e-01, 1.20963484e-01,
          1.19426310e-01, 9.94606689e-02, 1.07436091e-01, 1.03111282e-01 ]
      - [ 2.09027231e-01, 1.59766033e-01, 1.37928247e-01, 1.61178544e-01,
          1.60040393e-01, 1.43287063e-01, 1.31512433e-01, 1.42649651e-01,
          1.53789774e-01, 1.51761875e-01, 1.28842920e-01, 1.21123634e-01,
          1.08691223e-01, 1.15838602e-01, 1.47139192e-01, 1.83622912e-01,
          1.10379860e-01, 7.52566904e-02, 4.82177250e-02, 7.57440180e-02,
          8.35794285e-02, 8.84676129e-02, 8.10727105e-02, 6.76562339e-02,
          6.68557882e-02, 6.70442507e-02, 7.06285909e-02, 8.18842798e-02,
          1.07335374e-01, 1.47153839e-01, 1.66797981e-01, 1.38421014e-01,
          1.40579194e-01, 1.05252437e-01, 7.68619776e-02, 1.28748730e-01,
          1.46149248e-01, 1.69067413e-01, 1.26993224e-01, 1.31521225e-01,
          1.50485352e-01, 1.47577912e-01, 1.23738535e-01, 1.13050327e-01,
          9.01611224e-02, 9.44813043e-02, 9.94687676e-02, 8.80590528e-02,
          1.13700241e-01, 1.07834794e-01, 1.23409964e-01, 1.26668885e-01,
          1.23721026e-01, 1.22889511e-01, 1.47908986e-01, 1.46431521e-01,
          1.40849262e-01, 1.51008397e-01, 1.32716507e-01, 1.21530913e-01,
          1.12518527e-01, 9.18193161e-02, 1.06671572e-01, 9.89020169e-02 ]
      - [ 1.68306246e-01, 1.45760879e-01, 1.50440007e-01, 1.51488796e-01,
          1.48727566e-01, 1.25547990e-01, 1.57900348e-01, 1.48958236e-01,
          1.60675406e-01, 1.31774321e-01, 1.20337509e-01, 1.03589267e-01,
          1.06687918e-01, 1.30114257e-01, 1.69755533e-01, 1.93665445e-01,
          1.03786275e-01, 4.32611108e-02, 3.85852866e-02, 5.01879565e-02,
          6.38719574e-02, 5.82684278e-02, 5.21003231e-02, 4.71636318e-02,
          4.68499511e-02, 4.59909700e-02, 5.29076792e-02, 6.59822002e-02,
          1.00752741e-01, 1.42588675e-01, 1.66661561e-01, 1.09927036e-01,
          1.27067804e-01, 7.83231705e-02, 8.30228031e-02, 1.14114247e-01,
          1.57714784e-01, 1.49540842e-01, 1.92191809e-01, 1.72649279e-01,
          1.68041334e-01, 1.19234443e-01, 9.07123834e-02, 1.00953981e-01,
          1.01727575e-01, 1.05377786e-01, 1.32917345e-01, 1.87341258e-01,
          1.40869141e-01, 1.09016612e-01, 9.22817737e-02, 1.01991318e-01,
          1.33076772e-01, 1.35621443e-01, 1.39660582e-01, 1.53652892e-01,
          1.59151971e-01, 1.50136352e-01, 1.26896083e-01, 1.12049840e-01,
          1.13130875e-01, 8.52265805e-02, 1.04218006e-01, 1.31754220e-01 ]
      - [ 1.45895973e-01, 1.30669519e-01, 1.74474880e-01, 1.53699026e-01,
          1.70287877e-01, 1.31589577e-01, 1.64030790e-01, 1.79451078e-01,
          1.72240376e-01, 1.49910018e-01, 1.12926014e-01, 9.98268649e-02,
          1.13714710e-01, 1.29985705e-01, 2.10328132e-01, 2.07998797e-01,
          6.33233264e-02, 4.74482067e-02, 5.27680069e-02, 6.52368143e-02,
          8.49177465e-02, 7.53160492e-02, 5.88868633e-02, 5.69691882e-02,
          5.57395443e-02, 6.41559884e-02, 5.48583828e-02, 7.66340643e-02,
          1.08643517e-01, 1.31162554e-01, 1.95303187e-01, 1.16626628e-01,
          1.12421043e-01, 7.54076838e-02, 6.84791952e-02, 1.09088786e-01,
          1.40850142e-01, 1.31816402e-01, 1.77646831e-01, 1.66768506e-01,
          1.60705149e-01, 1.20939359e-01, 9.30373743e-02, 8.66517946e-02,
          8.42461288e-02, 7.72757828e-02, 1.13803670e-01, 1.64816335e-01,
          1.26265407e-01, 1.03310481e-01, 8.68413150e-02, 1.01489425e-01,
          1.22990400e-01, 1.17997028e-01, 1.40499562e-01, 1.59780815e-01,
          1.73619568e-01, 1.38807684e-01, 1.09749272e-01, 9.55761671e-02,
          1.06736422e-01, 9.10872594e-02, 1.05684929e-01, 1.36684164e-01 ]
      - [ 1.79334372e-01, 1.59049556e-01, 1.25733614e-01, 1.36852711e-01,
          1.60981447e-01, 1.71141550e-01, 1.58197761e-01, 1.45795807e-01,
          1.50373757e-01, 1.35622531e-01, 1.06137984e-01, 1.03637829e-01,
          1.06115438e-01, 1.08502895e-01, 1.94173560e-01, 2.14968488e-01,
          7.89399669e-02, 3.20440345e-02, 3.87504846e-02, 5.92931807e-02,
          9.91607606e-02, 1.02558523e-01, 7.20490217e-02, 6.33528382e-02,
          6.29563108e-02, 5.80895990e-02, 5.61129749e-02, 6.68430924e-02,
          1.00775808e-01, 1.58490047e-01, 2.01825455e-01, 1.26064673e-01,
          1.22259878e-01, 7.66508803e-02, 5.93043528e-02, 9.40420926e-02,
          1.61096066e-01, 1.64737254e-01, 1.76947311e-01, 1.33664399e-01,
          1.46428302e-01, 1.31825373e-01, 1.08519860e-01, 1.09295107e-01,
          8.70649815e-02, 8.60307738e-02, 1.05547421e-01, 1.33725300e-01,
          1.35547087e-01, 1.14832185e-01, 1.09989949e-01, 9.87263694e-02,
          1.20155275e-01, 1.20203398e-01, 1.46867692e-01, 1.68473318e-01,
          1.61145478e-01, 1.33705676e-01, 1.21231645e-01, 8.86147991e-02,
          1.04444370e-01, 9.78346020e-02, 1.14353262e-01, 1.16958186e-01 ]
      - [ 1.78470165e-01, 1.35192290e-01, 1.34140238e-01, 1.52390376e-01,
          1.46933138e-01, 1.37991905e-01, 1.38734788e-01, 1.40458047e-01,
          1.57732010e-01, 1.29550979e-01, 1.06164791e-01, 1.05064832e-01,
          1.13877274e-01, 1.41513512e-01, 1.52161032e-01, 1.89838141e-01,
          8.78570229e-02, 7.44623691e-02, 7.54406005e-02, 5.63716367e-02,
          6.96337596e-02, 6.09612875e-02, 5.43155409e-02, 5.72861806e-02,
          5.81261516e-02, 5.01852408e-02, 5.41074947e-02, 9.03773382e-02,
          9.99995992e-02, 1.27754837e-01, 1.28698260e-01, 1.09520569e-01,
          1.34659290e-01, 1.23422675e-01, 1.15100883e-01, 1.58351332e-01,
          1.74312741e-01, 1.71830967e-01, 1.59820557e-01, 1.65394664e-01,
          1.68302462e-01, 1.51597276e-01, 1.42604575e-01, 1.43072069e-01,
          1.20533891e-01, 1.22058466e-01, 1.46338984e-01, 1.50007933e-01,
          1.16323538e-01, 9.76397991e-02, 1.00566216e-01, 1.08351760e-01,
          1.27393663e-01, 1.07424207e-01, 1.22148551e-01, 1.39640287e-01,
          1.40526116e-01, 1.35376841e-01, 1.28066629e-01, 1.11445427e-01,
          1.12505399e-01, 9.14636552e-02, 9.63304415e-02, 9.91313830e-02 ]
      - [ 2.10772082e-01, 1.55103654e-01, 1.17665313e-01, 1.22372322e-01,
          1.52740255e-01, 1.27027109e-01, 1.43847421e-01, 1.65734023e-01,
          1.74663350e-01, 1.37344226e-01, 1.10603951e-01, 9.73681659e-02,
          9.92897749e-02, 1.17947355e-01, 1.55650973e-01, 2.22402424e-01,
          1.10961281e-01, 5.21049052e-02, 6.01458997e-02, 8.68030041e-02,
          8.18667859e-02, 9.57505703e-02, 8.80201831e-02, 7.86821693e-02,
          6.63190559e-02, 7.14311153e-02, 6.56929836e-02, 7.88224712e-02,
          9.36008543e-02, 1.42856151e-01, 1.73211202e-01, 1.29967108e-01,
          1.19148470e-01, 8.39498192e-02, 7.75105506e-02, 1.28085986e-01,
          1.40954345e-01, 1.37200564e-01, 1.48561016e-01, 1.47060096e-01,
          1.65792674e-01, 1.26537696e-01, 1.04184657e-01, 1.05933182e-01,
          9.58266109e-02, 9.46189761e-02, 1.06219590e-01, 1.17661759e-01,
          1.46227136e-01, 1.14548013e-01, 1.07687406e-01, 1.04313254e-01,
          1.16323099e-01, 1.29447594e-01, 1.38431564e-01, 1.68202803e-01,
          1.70374408e-01, 1.39796048e-01, 1.30988538e-01, 1.08972721e-01,
          1.03797935e-01, 9.51079801e-02, 1.10091127e-01, 1.23673894e-01 ]
      - [ 1.87664255e-01, 1.44817412e-01, 1.58767566e-01, 1.50893599e-01,
          1.66357592e-01, 1.52987108e-01, 1.35532185e-01, 1.33307815e-01,
          1.42902747e-01, 1.50665343e-01, 1.31589025e-01, 1.18576735e-01,
          1.09372921e-01, 1.34320885e-01, 1.73388451e-01, 1.89082265e-01,
          1.07884876e-01, 7.11526722e-02, 4.95659262e-02, 6.92809150e-02,
          9.74844396e-02, 7.87370354e-02, 7.57568553e-02, 5.86385913e-02,
          5.67165837e-02, 5.56553341e-02, 6.96132630e-02, 8.10366347e-02,
          1.09013408e-01, 1.49958134e-01, 1.66958436e-01, 1.08569384e-01,
          1.22482963e-01, 1.03518330e-01, 8.38590935e-02, 1.14955559e-01,
          1.72729671e-01, 1.72037780e-01, 1.43730789e-01, 1.23935692e-01,
          1.48303792e-01, 1.42788336e-01, 1.17493488e-01, 1.21448524e-01,
          1.03322603e-01, 8.87287036e-02, 9.81507003e-02, 1.17562741e-01,
          1.21521860e-01, 1.07670657e-01, 1.13672912e-01, 1.17541701e-01,
          1.31727591e-01, 1.21242374e-01, 1.30749449e-01, 1.47958145e-01,
          1.41449630e-01, 1.57157302e-01, 1.17474928e-01, 1.20400488e-01,
          1.23415433e-01, 9.75286812e-02, 1.02798149e-01, 1.04353212e-01 ]
      - [ 1.64311126e-01, 1.51437819e-01, 1.53861657e-01, 1.60707280e-01,
          1.52898058e-01, 1.51102796e-01, 1.47225291e-01, 1.34184837e-01,
          1.45376891e-01, 1.40456796e-01, 1.25057533e-01, 1.17621511e-01,
          1.18186139e-01, 1.41308859e-01, 1.86357483e-01, 1.82290584e-01,
          9.25739408e-02, 4.77564670e-02, 5.67145608e-02, 8.07094350e-02,
          9.64577273e-02, 7.54532740e-02, 6.16637543e-02, 4.53834943e-02,
          5.37607856e-02, 6.08903542e-02, 6.35379553e-02, 7.42320344e-02,
          1.02987960e-01, 1.52964503e-01, 1.53091222e-01, 1.22835509e-01,
          1.26007706e-01, 8.15978274e-02, 8.97199810e-02, 1.39698520e-01,
          1.35423705e-01, 1.75325409e-01, 1.74806327e-01, 1.40294611e-01,
          1.33614480e-01, 1.32191062e-01, 1.22196369e-01, 1.12094283e-01,
          9.62744951e-02, 1.04346253e-01, 1.30091220e-01, 1.15030505e-01,
          1.32463217e-01, 1.09620869e-01, 1.11548200e-01, 1.14431031e-01,
          1.22853160e-01, 1.28692031e-01, 1.34040073e-01, 1.41145945e-01,
          1.51149794e-01, 1.49125054e-01, 1.30956680e-01, 1.09306790e-01,
          1.15608320e-01, 9.93663445e-02, 1.11987539e-01, 1.23150051e-01 ]
      - [ 1.57321632e-01, 1.35770902e-01, 1.54608741e-01, 2.04510108e-01,
          1.91435322e-01, 1.29674003e-01, 1.43275827e-01, 1.40028253e-01,
          1.50312349e-01, 1.39870808e-01, 1.26824096e-01, 1.10080175e-01,
          1.24327064e-01, 1.59174964e-01, 1.93153456e-01, 1.82233274e-01,
          8.80405456e-02, 4.00107913e-02, 2.52726749e-02, 1.60823017e-02,
          2.72411499e-02, 2.76798028e-02, 3.66311111e-02, 4.51258682e-02,
          3.05093788e-02, 3.94677743e-02, 4.44959849e-02, 6.24523237e-02,
          1.09897822e-01, 1.51503533e-01, 1.48739859e-01, 1.03675246e-01,
          9.91304368e-02, 8.47119614e-02, 9.42425057e-02, 1.24522671e-01,
          1.49276331e-01, 1.73697680e-01, 1.87971011e-01, 1.35430887e-01,
          1.46180302e-01, 1.09861955e-01, 9.69698876e-02, 1.01658300e-01,
          9.50738192e-02, 8.99895430e-02, 1.31982386e-01, 1.30690768e-01,
          1.45272866e-01, 1.01601236e-01, 9.75658223e-02, 9.90203321e-02,
          1.13827839e-01, 1.15645751e-01, 1.46443456e-01, 1.65618882e-01,
          1.77702814e-01, 1.65589482e-01, 1.22319564e-01, 1.13724828e-01,
          1.12877443e-01, 9.74304825e-02, 1.10542573e-01, 1.57399163e-01 ]
      - [ 2.14570433e-01, 1.66996241e-01, 1.38730705e-01, 1.41707391e-01,
          1.53887600e-01, 1.19893648e-01, 1.52471989e-01, 1.66327432e-01,
          1.77061006e-01, 1.46873191e-01, 1.17497131e-01, 1.01669431e-01,
          1.01052202e-01, 1.06494971e-01, 1.86753467e-01, 2.21377030e-01,
          8.06739852e-02, 7.60923102e-02, 5.93708269e-02, 7.82838240e-02,
          9.02827308e-02, 7.30734915e-02, 7.02950433e-02, 5.04998937e-02,
          4.86558825e-02, 5.64703234e-02, 6.32841662e-02, 7.89096281e-02,
          9.68416482e-02, 1.38082132e-01, 1.94652960e-01, 1.00557037e-01,
          1.32939845e-01, 8.23130906e-02, 7.62840062e-02, 1.06190965e-01,
          1.37725323e-01, 1.35528833e-01, 1.78601801e-01, 1.58898935e-01,
          1.67365640e-01, 1.23446107e-01, 1.04368791e-01, 9.12702829e-02,
          8.45720172e-02, 8.30105618e-02, 9.34326649e-02, 1.26188919e-01,
          1.14239022e-01, 1.15183040e-01, 1.27849728e-01, 1.12075150e-01,
          1.18700810e-01, 1.19253896e-01, 1.21470191e-01, 1.61745802e-01,
          1.67774186e-01, 1.31609634e-01, 1.17661566e-01, 1.25874117e-01,
          1.23493440e-01, 9.13229138e-02, 9.18840989e-02, 1.06135525e-01 ]
      - [ 1.57553867e-01, 8.81966725e-02, 1.61821485e-01, 1.80280909e-01,
          1.82282850e-01, 1.48812741e-01, 1.59721181e-01, 1.59259200e-01,
          1.64890766e-01, 1.32434607e-01, 1.05168805e-01, 1.00984804e-01,
          9.20159072e-02, 9.88398939e-02, 1.76528841e-01, 2.62403905e-01,
          7.47383535e-02, 4.25413959e-02, 2.73101386e-02, 2.47595347e-02,
          2.62737963e-02, 2.50940435e-02, 3.94629128e-02, 5.00942580e-02,
          7.20985755e-02, 7.62487426e-02, 7.38924518e-02, 8.35556313e-02,
          1.08720146e-01, 1.63972557e-01, 1.69224411e-01, 1.28974095e-01,
          1.41364887e-01, 9.67874303e-02, 1.15128927e-01, 1.45633250e-01,
          1.56607166e-01, 1.40110657e-01, 1.71204701e-01, 1.62547603e-01,
          1.86853006e-01, 1.56142637e-01, 1.19236417e-01, 1.04364067e-01,
          9.61062387e-02, 9.93055031e-02, 1.23291187e-01, 1.57437190e-01,
          1.06709711e-01, 8.93233493e-02, 7.82098100e-02, 8.46473575e-02,
          1.01723813e-01, 1.03511184e-01, 1.30497485e-01, 1.52494594e-01,
          1.59040928e-01, 1.25534266e-01, 8.90006423e-02, 9.31186303e-02,
          9.78829190e-02, 8.44451040e-02, 9.60126147e-02, 1.09023951e-01 ]
      - [ 1.44400477e-01, 8.69922042e-02, 1.69099331e-01, 1.85153157e-01,
          1.85116127e-01, 1.60235301e-01, 1.53175145e-01, 1.65970907e-01,
          1.58769265e-01, 1.36693224e-01, 1.09120026e-01, 1.02473527e-01,
          9.95034426e-02, 9.63618383e-02, 1.68417186e-01, 2.73011297e-01,
          7.24691078e-02, 4.20300439e-02, 2.82716341e-02, 2.45558321e-02,
          3.07262111e-02, 2.84230504e-02, 4.30162363e-02, 4.93770242e-02,
          6.92791343e-02, 7.80840516e-02, 7.21495003e-02, 8.25499371e-02,
          1.12896346e-01, 1.58484370e-01, 1.67635337e-01, 1.30634695e-01,
          1.43000111e-01, 9.25803483e-02, 1.12778172e-01, 1.54742882e-01,
          1.64842159e-01, 1.43071219e-01, 1.55506000e-01, 1.61592245e-01,
          1.83757424e-01, 1.48344010e-01, 1.30600318e-01, 9.90316197e-02,
          9.84748378e-02, 9.81312841e-02, 1.25030667e-01, 1.47926822e-01,
          1.09196261e-01, 9.32105333e-02, 8.21045488e-02, 8.28730687e-02,
          1.01230770e-01, 9.47006270e-02, 1.25592470e-01, 1.53011292e-01,
          1.65853903e-01, 1.19485743e-01, 9.42246988e-02, 8.61072540e-02,
          9.35496315e-02, 8.35016742e-02, 9.59793106e-02, 1.01104297e-01 ]
      - [ 1.56477958e-01, 8.53974670e-02, 1.59021392e-01, 1.90004528e-01,
          1.80257589e-01, 1.52039945e-01, 1.50181934e-01, 1.36820138e-01,
          1.44241020e-01, 1.32044673e-01, 1.10862009e-01, 9.90272164e-02,
          9.80364308e-02, 9.29927453e-02, 1.61242276e-01, 2.41695747e-01,
          7.13820159e-02, 4.22673486e-02, 2.79135648e-02, 2.67827585e-02,
          2.85387281e-02, 4.01462242e-02, 5.17298914e-02, 5.04755341e-02,
          6.24404885e-02, 7.91604444e-02, 7.73916692e-02, 8.27197656e-02,
          1.11592367e-01, 1.68996885e-01, 1.66034997e-01, 1.35454491e-01,
          1.30876467e-01, 1.00641593e-01, 1.12382218e-01, 1.54278919e-01,
          1.61915451e-01, 1.51342571e-01, 1.71072692e-01, 1.57881722e-01,
          1.73858121e-01, 1.56461060e-01, 1.21887334e-01, 1.10986516e-01,
          1.01215541e-01, 1.08049378e-01, 1.27055854e-01, 1.53226182e-01,
          1.20442271e-01, 9.10931230e-02, 7.98365101e-02, 8.63442644e-02,
          1.07551388e-01, 1.14209577e-01, 1.31941631e-01, 1.59730479e-01,
          1.76414430e-01, 1.20934010e-01, 9.46737900e-02, 9.02449489e-02,
          9.77984741e-02, 8.90648067e-02, 9.70358849e-02, 1.28930271e-01 ]
      - [ 1.79305956e-01, 9.53935161e-02, 1.45340353e-01, 1.69213712e-01,
          1.99924529e-01, 1.60913005e-01, 1.54958904e-01, 1.39420614e-01,
          1.64416522e-01, 1.35510683e-01, 1.20243102e-01, 1.13569826e-01,
          1.06344640e-01, 8.66726637e-02, 1.29663229e-01, 2.43078798e-01,
          8.25910121e-02, 4.75715622e-02, 3.45302224e-02, 2.91345827e-02,
          3.68623324e-02, 5.17996214e-02, 6.09557778e-02, 5.12507930e-02,
          7.42997453e-02, 8.46459121e-02, 8.01003352e-02, 8.45167115e-02,
          1.08793594e-01, 1.70438051e-01, 1.72077224e-01, 1.12341426e-01,
          1.87819093e-01, 1.03658013e-01, 1.07347809e-01, 1.28025725e-01,
          1.70147836e-01, 1.59972966e-01, 1.48061723e-01, 1.33485422e-01,
          1.67395785e-01, 1.69903964e-01, 1.30543247e-01, 1.11479610e-01,
          1.11979641e-01, 8.85564536e-02, 1.04224302e-01, 1.47359356e-01,
          1.11695632e-01, 9.46931317e-02, 9.20733660e-02, 9.69423503e-02,
          1.10306367e-01, 1.02483109e-01, 1.20317601e-01, 1.51008293e-01,
          1.58703536e-01, 1.27361000e-01, 9.65706110e-02, 9.45001245e-02,
          9.58722457e-02, 7.81675354e-02, 9.40177366e-02, 1.03572518e-01 ]
      - [ 1.92914382e-01, 1.05706863e-01, 1.20231479e-01, 1.88385949e-01,
          2.09464028e-01, 1.67156264e-01, 1.43161714e-01, 1.31674364e-01,
          1.70875639e-01, 1.66971087e-01, 1.27642244e-01, 1.18009970e-01,
          1.09805450e-01, 9.27701145e-02, 9.90088060e-02, 1.80847645e-01,
          7.44467974e-02, 5.21241166e-02, 3.77122313e-02, 3.76889780e-02,
          4.62719612e-02, 6.38136938e-02, 6.86359853e-02, 5.91126978e-02,
          7.07972646e-02, 8.24235007e-02, 8.65620524e-02, 1.00744881e-01,
          1.17548995e-01, 1.74062878e-01, 1.77287385e-01, 1.15155853e-01,
          1.80025324e-01, 1.47427648e-01, 8.69651586e-02, 1.40588552e-01,
          1.60631806e-01, 1.76170751e-01, 1.41394854e-01, 1.18327580e-01,
          1.26671493e-01, 1.59487158e-01, 1.36512250e-01, 1.29237354e-01,
          1.31949663e-01, 9.02053788e-02, 7.99510628e-02, 9.29039493e-02,
          1.06080197e-01, 9.96060744e-02, 9.70029756e-02, 1.15895823e-01,
          1.25311181e-01, 9.73234773e-02, 1.19484469e-01, 1.32482618e-01,
          1.63820043e-01, 1.43177494e-01, 1.11991085e-01, 1.08172141e-01,
          1.05456695e-01, 8.38044211e-02, 9.04663801e-02, 9.56424549e-02 ]
      - [ 1.70468375e-01, 9.07217041e-02, 1.28475189e-01, 1.67107373e-01,
          2.11458683e-01, 2.05442682e-01, 1.47628605e-01, 1.27217859e-01,
          1.44361585e-01, 1.39244333e-01, 1.29190370e-01, 1.23677559e-01,
          1.12440296e-01, 8.87140855e-02, 1.16926178e-01, 2.20772281e-01,
          6.18403666e-02, 5.08756824e-02, 3.91989574e-02, 4.13105413e-02,
          4.26422432e-02, 5.49223386e-02, 6.46155998e-02, 4.94319983e-02,
          7.22715184e-02, 8.60605761e-02, 8.85529146e-02, 9.37585309e-02,
          1.16888434e-01, 1.79159999e-01, 1.91270962e-01, 1.03325531e-01,
          1.48634017e-01, 9.97257158e-02, 8.86388123e-02, 1.33776113e-01,
          1.91383690e-01, 1.72833234e-01, 1.38879150e-01, 1.25568360e-01,
          1.49552613e-01, 1.36217132e-01, 1.38552651e-01, 1.17566414e-01,
          1.20302200e-01, 1.00662395e-01, 1.12407453e-01, 1.38156772e-01,
          1.10163622e-01, 9.49628875e-02, 8.35884362e-02, 9.48935226e-02,
          1.13762863e-01, 1.04999132e-01, 1.34842575e-01, 1.56745225e-01,
          1.60419092e-01, 1.25618845e-01, 9.16621462e-02, 9.78844538e-02,
          1.09536462e-01, 9.73459259e-02, 1.03783399e-01, 9.81118754e-02 ]
      - [ 1.92314401e-01, 1.02881506e-01, 1.26207769e-01, 1.82086438e-01,
          2.08822459e-01, 1.78597406e-01, 1.39787346e-01, 1.19587481e-01,
          1.40884355e-01, 1.39026880e-01, 1.28479034e-01, 1.25611737e-01,
          1.10732786e-01, 8.93896967e-02, 1.11697987e-01, 2.25041851e-01,
          5.77486306e-02, 4.59899530e-02, 3.68343107e-02, 3.38874012e-02,
          3.94222885e-02, 5.62312379e-02, 6.33487925e-02, 5.23580872e-02,
          6.40239194e-02, 8.34755078e-02, 8.53085816e-02, 9.04383212e-02,
          1.22757353e-01, 1.65173978e-01, 1.81743592e-01, 1.08469538e-01,
          1.56984836e-01, 1.00198925e-01, 9.74242166e-02, 1.28309712e-01,
          1.78404599e-01, 1.66249439e-01, 1.44738927e-01, 1.38542533e-01,
          1.54231176e-01, 1.48109451e-01, 1.34834155e-01, 1.15477376e-01,
          1.11192383e-01, 9.67602506e-02, 1.10100567e-01, 1.36733636e-01,
          1.12440795e-01, 9.87809822e-02, 9.02093127e-02, 1.09525301e-01,
          1.21494800e-01, 1.18326165e-01, 1.19495787e-01, 1.56639561e-01,
          1.48835614e-01, 1.29243493e-01, 1.05864272e-01, 1.06461078e-01,
          1.23378821e-01, 9.94427353e-02, 9.72775519e-02, 9.97660235e-02 ]
      - [ 1.66091800e-01, 1.12347163e-01, 1.23584263e-01, 1.73791751e-01,
          2.21015960e-01, 1.85014591e-01, 1.48948029e-01, 1.14452690e-01,
          1.35209039e-01, 1.36929214e-01, 1.36084631e-01, 1.33095279e-01,
          1.21420428e-01, 9.41793025e-02, 1.22162201e-01, 2.20570281e-01,
          6.42181188e-02, 3.78991961e-02, 3.31006981e-02, 3.22836712e-02,
          4.01716270e-02, 3.56522501e-02, 4.32132818e-02, 4.79847565e-02,
          5.90817034e-02, 7.40945414e-02, 8.00014287e-02, 9.25527290e-02,
          1.16460852e-01, 1.86289161e-01, 1.64364204e-01, 8.23726058e-02,
          1.38845444e-01, 1.06901474e-01, 1.04216777e-01, 1.48295656e-01,
          1.78723037e-01, 1.72354579e-01, 1.34591907e-01, 1.44911408e-01,
          1.44632325e-01, 1.40663952e-01, 1.35011286e-01, 1.18301913e-01,
          1.12550929e-01, 1.05772816e-01, 1.07431464e-01, 1.24496341e-01,
          1.23034485e-01, 9.69645903e-02, 8.73998180e-02, 1.01152629e-01,
          1.16879478e-01, 1.07250258e-01, 1.41119882e-01, 1.52887821e-01,
          1.44621834e-01, 1.40243605e-01, 1.13529526e-01, 1.20900407e-01,
          1.24539956e-01, 1.00380912e-01, 1.00259431e-01, 1.09521493e-01 ]
      - [ 1.34221852e-01, 1.30738273e-01, 1.32389739e-01, 1.51241586e-01,
          1.78700730e-01, 1.69015363e-01, 1.17104687e-01, 8.00127760e-02,
          1.07553720e-01, 9.63488370e-02, 9.40049067e-02, 9.85196233e-02,
          1.47971958e-01, 1.64574042e-01, 1.68895796e-01, 1.44369707e-01,
          1.04612902e-01, 8.46451968e-02, 7.12158009e-02, 7.12335035e-02,
          6.15651868e-02, 4.49274331e-02, 5.30264080e-02, 4.02030349e-02,
          4.94591370e-02, 4.63493541e-02, 4.56522554e-02, 8.21430758e-02,
          1.28950536e-01, 1.39552951e-01, 1.45232514e-01, 1.14996403e-01,
          9.36165750e-02, 9.76871103e-02, 1.28056988e-01, 1.65599644e-01,
          2.16255710e-01, 1.76667392e-01, 1.63561121e-01, 1.35116413e-01,
          1.10932522e-01, 1.19418189e-01, 1.20733522e-01, 1.05054334e-01,
          1.28516212e-01, 1.33091033e-01, 1.14858851e-01, 9.67911780e-02,
          1.09487087e-01, 9.93796885e-02, 1.11319944e-01, 1.16683289e-01,
          1.15695715e-01, 1.08947717e-01, 1.06897056e-01, 1.54174089e-01,
          1.97513476e-01, 1.93355992e-01, 1.28392726e-01, 1.06243856e-01,
          1.65235728e-01, 1.44804403e-01, 1.35470405e-01, 1.02920942e-01 ]
      - [ 1.47181034e-01, 1.41378939e-01, 1.34647563e-01, 1.28114074e-01,
          1.68819502e-01, 1.80409163e-01, 1.23605512e-01, 8.98723975e-02,
          1.06137045e-01, 1.12119652e-01, 9.18860510e-02, 1.03340179e-01,
          1.30943596e-01, 1.50249973e-01, 1.59530178e-01, 1.51240498e-01,
          1.10077024e-01, 7.79398456e-02, 7.51737505e-02, 7.15360194e-02,
          6.22075535e-02, 4.21199724e-02, 4.79471758e-02, 4.65319790e-02,
          5.13888076e-02, 4.94764522e-02, 4.81145605e-02, 8.02104026e-02,
          1.28057674e-01, 1.36662915e-01, 1.31567851e-01, 1.17946528e-01,
          1.09588422e-01, 1.07983895e-01, 1.38600796e-01, 1.66978747e-01,
          1.97361752e-01, 1.74826130e-01, 1.69531137e-01, 1.24552011e-01,
          1.07230380e-01, 1.64290339e-01, 1.32613301e-01, 1.02438994e-01,
          1.28071040e-01, 1.29849508e-01, 1.21041037e-01, 1.08027987e-01,
          1.04756497e-01, 9.92092490e-02, 1.15998402e-01, 1.19622685e-01,
          1.22373685e-01, 1.01590954e-01, 1.17712878e-01, 1.32599384e-01,
          1.83861449e-01, 2.04575032e-01, 1.28659040e-01, 1.10092908e-01,
          1.49652123e-01, 1.40232921e-01, 1.23364471e-01, 1.07639037e-01 ]
      - [ 1.44783005e-01, 1.36912897e-01, 1.12933613e-01, 1.55919582e-01,
          1.68068931e-01, 1.65568247e-01, 1.33121535e-01, 1.02277339e-01,
          1.20312110e-01, 8.69935825e-02, 8.80573690e-02, 1.09951518e-01,
          1.31289840e-01, 1.63630441e-01, 1.80233553e-01, 1.60253450e-01,
          1.01607218e-01, 7.93352649e-02, 5.91524132e-02, 6.04977459e-02,
          5.28813116e-02, 4.49513383e-02, 5.40297180e-02, 3.70316915e-02,
          4.13601212e-02, 5.23347333e-02, 4.28075828e-02, 6.88375607e-02,
          1.15244247e-01, 1.25230610e-01, 1.40488848e-01, 1.10084541e-01,
          9.74007919e-02, 1.04056209e-01, 1.31495163e-01, 1.61364838e-01,
          2.10317999e-01, 1.87749669e-01, 1.79995686e-01, 1.19704530e-01,
          1.13552786e-01, 1.53011292e-01, 1.22170508e-01, 9.17966366e-02,
          1.15125924e-01, 1.38123840e-01, 1.25776067e-01, 1.01563953e-01,
          1.07525334e-01, 1.03673264e-01, 9.88990963e-02, 1.11313008e-01,
          1.11934587e-01, 1.05183765e-01, 1.10801816e-01, 1.49092734e-01,
          2.00176984e-01, 1.84057832e-01, 1.12450145e-01, 1.10652782e-01,
          1.70392528e-01, 1.44192874e-01, 1.40255049e-01, 1.08174011e-01 ]
      - [ 1.38532281e-01, 1.05233803e-01, 1.17919728e-01, 1.52272627e-01,
          1.58637270e-01, 1.59947991e-01, 1.55053154e-01, 1.32398382e-01,
          9.58640575e-02, 7.84435123e-02, 8.06313232e-02, 8.41437057e-02,
          1.23371057e-01, 1.64218441e-01, 1.88165560e-01, 1.51396006e-01,
          1.04037493e-01, 8.03697482e-02, 5.35681397e-02, 3.98768932e-02,
          3.89588773e-02, 3.55773494e-02, 5.56311570e-02, 5.41343316e-02,
          4.86680567e-02, 3.98487374e-02, 5.63512333e-02, 7.17925504e-02,
          9.30274427e-02, 1.05647124e-01, 1.38452038e-01, 1.15569711e-01,
          1.43183023e-01, 1.19528994e-01, 1.09979935e-01, 1.65463716e-01,
          1.85256407e-01, 1.66317105e-01, 1.85711056e-01, 1.57736704e-01,
          1.64997324e-01, 1.43210977e-01, 8.41769278e-02, 9.42268521e-02,
          1.43829718e-01, 1.50609940e-01, 1.44171372e-01, 1.30382717e-01,
          1.26927525e-01, 9.74273756e-02, 8.22826773e-02, 8.74074772e-02,
          1.23315133e-01, 9.85176042e-02, 1.40287474e-01, 1.61516443e-01,
          2.03386962e-01, 1.65969193e-01, 7.37706944e-02, 7.21315369e-02,
          1.16537519e-01, 1.34209678e-01, 1.69132054e-01, 1.57441199e-01 ]
      - [ 1.34876177e-01, 1.15426049e-01, 1.25637650e-01, 1.36587560e-01,
          1.53223708e-01, 1.52608603e-01, 1.50396720e-01, 1.30377054e-01,
          1.03190482e-01, 7.47175142e-02, 8.17237496e-02, 8.31848755e-02,
          1.17288314e-01, 1.60425097e-01, 1.91568330e-01, 1.56952381e-01,
          1.08784787e-01, 7.06612468e-02, 3.87388282e-02, 3.68220769e-02,
          3.58532965e-02, 3.68223600e-02, 7.32110962e-02, 6.99254721e-02,
          5.03110550e-02, 4.16434444e-02, 4.91543189e-02, 5.92576973e-02,
          8.77979100e-02, 1.14509113e-01, 1.60647541e-01, 1.24196708e-01,
          1.52105510e-01, 1.23744227e-01, 1.17254749e-01, 1.50169000e-01,
          1.79820791e-01, 1.64123565e-01, 2.01202348e-01, 1.56874493e-01,
          1.79193899e-01, 1.50633186e-01, 8.87532905e-02, 9.47108343e-02,
          1.27805769e-01, 1.38126865e-01, 1.41860589e-01, 1.38374746e-01,
          1.38127953e-01, 9.92140472e-02, 7.47282505e-02, 8.31553936e-02,
          9.59317535e-02, 6.93868250e-02, 1.37627646e-01, 1.77611694e-01,
          2.23510757e-01, 1.72751993e-01, 8.03469121e-02, 6.62274808e-02,
          8.86752903e-02, 1.18587218e-01, 1.53516844e-01, 1.57087430e-01 ]
      - [ 1.24371439e-01, 9.04594660e-02, 1.26882419e-01, 1.29667401e-01,
          1.73858449e-01, 1.54760599e-01, 1.51121467e-01, 1.10561222e-01,
          8.52004960e-02, 7.53282607e-02, 7.98748136e-02, 8.84974822e-02,
          1.32433921e-01, 1.75224930e-01, 2.03366593e-01, 1.41481787e-01,
          9.80613157e-02, 6.27750680e-02, 4.11871970e-02, 4.03587148e-02,
          4.43224646e-02, 3.71114314e-02, 5.85853681e-02, 6.66672364e-02,
          4.75863405e-02, 3.90234850e-02, 3.95757221e-02, 5.38523346e-02,
          8.67215469e-02, 1.04128309e-01, 1.44390494e-01, 1.23198010e-01,
          1.17840007e-01, 1.13973804e-01, 1.12390660e-01, 1.72858521e-01,
          1.86625376e-01, 1.72729567e-01, 2.10843578e-01, 1.65656656e-01,
          1.63004726e-01, 1.24317333e-01, 9.46427435e-02, 9.84614119e-02,
          1.44171298e-01, 1.55143008e-01, 1.57834008e-01, 1.23959959e-01,
          1.13780439e-01, 9.83956605e-02, 7.85296038e-02, 8.76196101e-02,
          1.28495559e-01, 9.28436071e-02, 1.36331603e-01, 1.69719398e-01,
          2.02499777e-01, 1.51831001e-01, 8.67549181e-02, 7.00535104e-02,
          1.20077677e-01, 1.50675103e-01, 1.78790092e-01, 1.42677248e-01 ]
      - [ 1.33495510e-01, 9.54877436e-02, 1.21690288e-01, 1.40448079e-01,
          1.64873138e-01, 1.56662777e-01, 1.47273466e-01, 1.14085868e-01,
          8.87746587e-02, 7.75947422e-02, 8.68067592e-02, 9.07340199e-02,
          1.28070205e-01, 1.68471351e-01, 1.94738850e-01, 1.43617898e-01,
          1.11527331e-01, 6.81397170e-02, 4.85076159e-02, 4.25729118e-02,
          4.30900455e-02, 3.84464450e-02, 6.12463281e-02, 5.80111034e-02,
          4.89350632e-02, 4.13154252e-02, 4.73666899e-02, 6.47134557e-02,
          9.55779180e-02, 1.01074688e-01, 1.30735129e-01, 1.07169621e-01,
          1.30630553e-01, 1.12640746e-01, 1.17709041e-01, 1.60255685e-01,
          1.85013935e-01, 1.81211025e-01, 2.01691478e-01, 1.56516463e-01,
          1.56698078e-01, 1.46621823e-01, 8.81757662e-02, 9.62110311e-02,
          1.48870900e-01, 1.46361813e-01, 1.51692018e-01, 1.27682298e-01,
          1.26938760e-01, 1.00750156e-01, 8.00791755e-02, 8.73556808e-02,
          1.33528292e-01, 9.17485282e-02, 1.41850770e-01, 1.73088267e-01,
          1.93862349e-01, 1.56444401e-01, 8.18275362e-02, 9.38199759e-02,
          1.26536340e-01, 1.47430405e-01, 1.67947114e-01, 1.45846874e-01 ]
      - [ 1.25224262e-01, 9.79713872e-02, 1.24089338e-01, 1.53335869e-01,
          1.62828431e-01, 1.61754861e-01, 1.66835666e-01, 1.30047590e-01,
          9.57083851e-02, 7.58670047e-02, 8.20150524e-02, 8.51842538e-02,
          1.15061261e-01, 1.59391031e-01, 1.99899331e-01, 1.54536217e-01,
          1.15366861e-01, 6.26128167e-02, 4.44798768e-02, 3.65531743e-02,
          4.04895321e-02, 4.10313904e-02, 6.28927276e-02, 6.59848005e-02,
          4.92213108e-02, 4.65685800e-02, 4.02813628e-02, 5.96830696e-02,
          8.71471167e-02, 1.19990997e-01, 1.55667067e-01, 1.25091881e-01,
          1.39694706e-01, 1.15190513e-01, 9.98623669e-02, 1.74225971e-01,
          1.67343825e-01, 1.58177808e-01, 1.92507982e-01, 1.55740932e-01,
          1.41472861e-01, 1.31928831e-01, 9.07477811e-02, 9.28031504e-02,
          1.31301403e-01, 1.37968779e-01, 1.48837715e-01, 1.23934366e-01,
          1.31878614e-01, 8.84020329e-02, 7.37958103e-02, 8.03278983e-02,
          1.08579896e-01, 9.48575810e-02, 1.55791894e-01, 1.96925178e-01,
          2.17725575e-01, 1.55964628e-01, 8.62416700e-02, 7.46468529e-02,
          8.94226357e-02, 1.23281114e-01, 1.81815714e-01, 1.60427615e-01 ]
      - [ 1.35478809e-01, 1.04326472e-01, 1.15671277e-01, 1.42330706e-01,
          1.40139565e-01, 1.43999144e-01, 1.26248524e-01, 1.21638186e-01,
          1.03990972e-01, 8.20828229e-02, 8.94693136e-02, 8.29702094e-02,
          1.18441038e-01, 1.32223591e-01, 1.59166858e-01, 1.47500142e-01,
          1.22904003e-01, 7.78971240e-02, 4.71798480e-02, 3.90911214e-02,
          4.35941331e-02, 3.99687104e-02, 8.78361017e-02, 9.76163223e-02,
          5.77846132e-02, 4.40497622e-02, 5.86299337e-02, 7.97246099e-02,
          1.00119464e-01, 9.56671312e-02, 1.40523493e-01, 1.42727271e-01,
          1.44986704e-01, 1.22587971e-01, 1.03573866e-01, 1.45218775e-01,
          1.82858914e-01, 1.49337351e-01, 1.42810628e-01, 1.75981209e-01,
          1.60388663e-01, 1.36048004e-01, 1.09652705e-01, 1.00399137e-01,
          1.21815346e-01, 1.17857747e-01, 1.32758766e-01, 1.28086373e-01,
          1.65098533e-01, 1.11668780e-01, 7.39434436e-02, 8.68545696e-02,
          1.08499773e-01, 8.92438665e-02, 1.32900313e-01, 2.22515613e-01,
          2.34197393e-01, 1.57612532e-01, 8.96385908e-02, 8.50271955e-02,
          1.18840776e-01, 1.29957378e-01, 1.52815983e-01, 2.04691365e-01 ]
      - [ 1.33627221e-01, 1.00150384e-01, 1.24011233e-01, 1.61614835e-01,
          1.67228699e-01, 1.33713618e-01, 1.29686132e-01, 1.34484321e-01,
          9.98356193e-02, 8.22155476e-02, 1.03304230e-01, 9.84333307e-02,
          1.20107658e-01, 1.36634007e-01, 1.64324939e-01, 1.51680917e-01,
          1.29416227e-01, 7.32536986e-02, 5.21945581e-02, 4.10562493e-02,
          4.46184576e-02, 4.03663069e-02, 8.37714002e-02, 1.15200266e-01,
          6.66226447e-02, 3.94731499e-02, 5.44094071e-02, 8.05847794e-02,
          1.04959339e-01, 1.11930326e-01, 1.43483803e-01, 1.43413737e-01,
          1.47455245e-01, 1.37870073e-01, 1.02300420e-01, 1.70187116e-01,
          1.99289456e-01, 1.46163493e-01, 1.62574396e-01, 1.54256895e-01,
          1.60649985e-01, 1.15209550e-01, 9.37961414e-02, 1.09475881e-01,
          1.62683770e-01, 1.43838435e-01, 1.45313442e-01, 1.15938082e-01,
          1.65465325e-01, 9.98743176e-02, 8.30799341e-02, 8.79592970e-02,
          1.06914163e-01, 8.89007077e-02, 1.04912452e-01, 1.87870741e-01,
          2.14438558e-01, 1.52434453e-01, 6.52158782e-02, 9.79718715e-02,
          1.30799815e-01, 1.13532148e-01, 1.25598446e-01, 1.39830470e-01 ]
      - [ 1.23640686e-01, 1.09431863e-01, 1.18680976e-01, 1.52385905e-01,
          1.67640194e-01, 1.54954582e-01, 1.13255389e-01, 1.28327593e-01,
          1.16144001e-01, 8.99826065e-02, 8.99168327e-02, 9.82401893e-02,
          1.21177204e-01, 1.33057207e-01, 1.54877394e-01, 1.49507374e-01,
          1.21742077e-01, 9.45572555e-02, 6.26658127e-02, 4.51444350e-02,
          5.11262603e-02, 6.42660707e-02, 1.09966502e-01, 1.24937713e-01,
          6.58776909e-02, 4.37337309e-02, 5.44569083e-02, 8.63535479e-02,
          1.11587748e-01, 1.18493363e-01, 1.61261842e-01, 1.43925667e-01,
          1.54224917e-01, 1.42199576e-01, 8.86451527e-02, 1.44015834e-01,
          1.67600065e-01, 1.46064922e-01, 1.83210537e-01, 1.74247175e-01,
          1.54170096e-01, 1.35147005e-01, 9.27494094e-02, 1.05251335e-01,
          1.36834785e-01, 1.21621139e-01, 1.50437638e-01, 1.50652111e-01,
          1.32696182e-01, 1.00087635e-01, 8.89183879e-02, 1.09136097e-01,
          1.19641647e-01, 9.27589759e-02, 1.09272093e-01, 1.64713055e-01,
          1.94934875e-01, 1.74479738e-01, 7.99024105e-02, 8.57799277e-02,
          1.27668858e-01, 1.26004457e-01, 1.22915372e-01, 1.28432736e-01 ]
      - [ 1.38932928e-01, 1.02944784e-01, 1.28042608e-01, 1.59787595e-01,
          1.62182882e-01, 1.47724465e-01, 1.43896729e-01, 1.53504953e-01,
          1.25810340e-01, 9.69986469e-02, 9.77589861e-02, 1.04854457e-01,
          1.26793504e-01, 1.28166810e-01, 1.68766886e-01, 1.84048012e-01,
          1.38942614e-01, 9.03579667e-02, 6.59766123e-02, 4.84867580e-02,
          4.60796505e-02, 5.37345372e-02, 1.14433356e-01, 1.24837205e-01,
          7.14832544e-02, 4.54783291e-02, 5.81573844e-02, 9.65961814e-02,
          1.12156987e-01, 1.08847804e-01, 1.62863627e-01, 1.39366969e-01,
          1.28405496e-01, 1.33147404e-01, 9.37230960e-02, 1.50417522e-01,
          1.77803874e-01, 1.42478257e-01, 1.59137055e-01, 1.26967400e-01,
          1.37436569e-01, 1.23985529e-01, 9.39090848e-02, 1.04281314e-01,
          1.46326005e-01, 1.33480921e-01, 1.26302838e-01, 9.98000428e-02,
          1.40063986e-01, 1.03402697e-01, 8.65437090e-02, 1.10457905e-01,
          1.32813424e-01, 9.78786647e-02, 9.26411003e-02, 1.67110100e-01,
          1.84165850e-01, 1.81626901e-01, 7.23561645e-02, 8.26543495e-02,
          1.44263506e-01, 1.12664953e-01, 1.20847590e-01, 1.34567469e-01 ]
      - [ 1.55323148e-01, 1.14987299e-01, 1.13766804e-01, 1.54300198e-01,
          1.52186796e-01, 1.36392310e-01, 1.33017197e-01, 1.49659365e-01,
          1.27015159e-01, 9.19980779e-02, 1.06688574e-01, 1.03411295e-01,
          1.25850320e-01, 1.40907466e-01, 1.63021550e-01, 1.52843937e-01,
          1.27327025e-01, 1.07834682e-01, 6.95968345e-02, 4.64259088e-02,
          5.85147291e-02, 5.56866415e-02, 1.16209559e-01, 1.32778004e-01,
          6.97858855e-02, 4.77194786e-02, 5.91703206e-02, 9.72007215e-02,
          1.19210742e-01, 1.21383458e-01, 1.66035637e-01, 1.37963608e-01,
          1.35052666e-01, 1.28338769e-01, 1.01187989e-01, 1.48870781e-01,
          1.88158795e-01, 1.23923242e-01, 1.66816324e-01, 1.43215358e-01,
          1.48766145e-01, 1.20746061e-01, 9.55859274e-02, 1.08641610e-01,
          1.53750688e-01, 1.42455176e-01, 1.27155036e-01, 1.08408310e-01,
          1.36082128e-01, 9.97431278e-02, 8.69954526e-02, 1.09477706e-01,
          1.25526488e-01, 9.74577516e-02, 1.00943021e-01, 1.67656630e-01,
          1.69213548e-01, 1.85942382e-01, 6.66475743e-02, 8.28750506e-02,
          1.32812127e-01, 1.05536729e-01, 1.20689735e-01, 1.35832340e-01 ]
      - [ 1.42494589e-01, 1.13660149e-01, 1.15493059e-01, 1.41634762e-01,
          1.43885866e-01, 1.42833456e-01, 1.33855999e-01, 1.46137118e-01,
          1.19770937e-01, 9.10468698e-02, 9.62350070e-02, 1.05119176e-01,
          1.24444105e-01, 1.28540888e-01, 1.60249248e-01, 1.53428465e-01,
          1.24372281e-01, 8.04514363e-02, 6.11240678e-02, 5.06333187e-02,
          4.99363430e-02, 5.46745583e-02, 1.09530941e-01, 1.32659882e-01,
          6.92869574e-02, 4.49150503e-02, 5.85659444e-02, 8.79477859e-02,
          9.17970762e-02, 9.76079479e-02, 1.69136345e-01, 1.53075054e-01,
          1.46194771e-01, 1.47840440e-01, 1.06372029e-01, 1.42722800e-01,
          1.75870329e-01, 1.40580967e-01, 1.80236816e-01, 1.61373571e-01,
          1.64526567e-01, 1.36355773e-01, 8.97530392e-02, 1.15051724e-01,
          1.57704011e-01, 1.44025236e-01, 1.58177108e-01, 1.24707229e-01,
          1.41209170e-01, 1.01682618e-01, 8.82168636e-02, 1.10540010e-01,
          1.24660768e-01, 9.25974473e-02, 9.92117003e-02, 1.61291435e-01,
          1.99657142e-01, 1.50738403e-01, 8.44407603e-02, 7.04858080e-02,
          1.08698487e-01, 1.06409222e-01, 1.18040480e-01, 1.35076761e-01 ]
      - [ 1.41207233e-01, 1.01712398e-01, 1.25387326e-01, 1.44616470e-01,
          1.48954749e-01, 1.39242277e-01, 1.15606152e-01, 1.37407795e-01,
          1.16356507e-01, 8.70985389e-02, 9.22038257e-02, 1.01975769e-01,
          1.17858991e-01, 1.18685760e-01, 1.44308358e-01, 1.51857376e-01,
          1.18681476e-01, 9.43657532e-02, 7.37974271e-02, 4.36731391e-02,
          5.27798496e-02, 6.86077699e-02, 1.13066785e-01, 1.13438986e-01,
          6.53047264e-02, 5.19535616e-02, 6.14989996e-02, 8.08495358e-02,
          9.74883437e-02, 1.02600679e-01, 1.58335537e-01, 1.22927956e-01,
          1.57324746e-01, 1.37173310e-01, 1.10961549e-01, 1.30058900e-01,
          1.75358683e-01, 1.59041762e-01, 1.72710016e-01, 1.52607024e-01,
          1.41581029e-01, 1.35896653e-01, 1.07379533e-01, 1.15588970e-01,
          1.48517638e-01, 1.25166565e-01, 1.40651971e-01, 1.34958550e-01,
          1.33927152e-01, 1.06471241e-01, 9.17351469e-02, 1.02424666e-01,
          1.17222212e-01, 9.00129452e-02, 1.35224000e-01, 2.01278761e-01,
          2.00345039e-01, 1.34088874e-01, 8.52629542e-02, 9.48519856e-02,
          1.21468492e-01, 1.27951652e-01, 1.34688184e-01, 1.81189552e-01 ]
      - [ 1.52582943e-01, 1.25025511e-01, 1.17845491e-01, 1.37495205e-01,
          1.67974934e-01, 1.49497792e-01, 1.23408072e-01, 1.23914786e-01,
          1.29183561e-01, 1.07225798e-01, 1.01534948e-01, 1.09083280e-01,
          1.30202785e-01, 1.31906956e-01, 1.59837440e-01, 1.51164696e-01,
          1.30241528e-01, 8.90844762e-02, 6.67902082e-02, 5.87636903e-02,
          6.59361035e-02, 6.94591925e-02, 1.01645149e-01, 8.97577479e-02,
          6.50765151e-02, 7.20215589e-02, 7.66988993e-02, 1.02070756e-01,
          1.12287082e-01, 1.06955349e-01, 1.31899104e-01, 1.10786490e-01,
          1.19073756e-01, 1.36786193e-01, 9.66453999e-02, 1.20710440e-01,
          1.60691455e-01, 1.59014583e-01, 1.83555841e-01, 1.31768599e-01,
          1.37859941e-01, 1.19989097e-01, 1.05804160e-01, 1.06121399e-01,
          1.31562725e-01, 1.33893520e-01, 1.29508674e-01, 1.04261510e-01,
          1.37024909e-01, 1.20824814e-01, 1.06834203e-01, 1.23926014e-01,
          1.39434144e-01, 1.03066474e-01, 1.32390186e-01, 1.54002592e-01,
          1.80660069e-01, 1.76545411e-01, 1.07286736e-01, 1.00108273e-01,
          1.54920816e-01, 1.34041831e-01, 1.29054368e-01, 1.45145059e-01 ]
      - [ 1.53772950e-01, 1.06024474e-01, 1.30352914e-01, 1.38833418e-01,
          1.52019143e-01, 1.59863770e-01, 1.34484544e-01, 1.11234479e-01,
          1.37669161e-01, 1.00804254e-01, 9.58416536e-02, 1.12306654e-01,
          1.28667995e-01, 1.27366066e-01, 1.50087208e-01, 1.58152610e-01,
          1.24299496e-01, 8.12099501e-02, 6.50740564e-02, 5.62730469e-02,
          5.70343584e-02, 6.95999712e-02, 1.00415379e-01, 8.73842984e-02,
          5.83486259e-02, 6.12643659e-02, 7.23589063e-02, 8.71788785e-02,
          1.02212340e-01, 1.01271734e-01, 1.51618838e-01, 1.22921288e-01,
          1.27697840e-01, 1.39180884e-01, 1.02949180e-01, 1.55164078e-01,
          1.71647117e-01, 1.71888217e-01, 1.60479262e-01, 1.32239595e-01,
          1.27425343e-01, 1.18224561e-01, 1.12402737e-01, 1.13623522e-01,
          1.47884294e-01, 1.33034483e-01, 1.33432463e-01, 1.07811607e-01,
          1.36795178e-01, 1.16926178e-01, 1.09173335e-01, 1.15779698e-01,
          1.40436307e-01, 1.09368205e-01, 1.16608374e-01, 1.54074907e-01,
          1.81724653e-01, 1.64668873e-01, 1.09414324e-01, 8.84257779e-02,
          1.42546833e-01, 1.24745496e-01, 1.41270503e-01, 1.56780213e-01 ]
      - [ 1.55222535e-01, 1.08762778e-01, 1.32448435e-01, 1.45306766e-01,
          1.60587355e-01, 1.60797030e-01, 1.30030185e-01, 1.19038515e-01,
          1.25453994e-01, 1.02392673e-01, 9.17988345e-02, 1.14886165e-01,
          1.29515350e-01, 1.29774258e-01, 1.59416750e-01, 1.48608804e-01,
          1.21745050e-01, 8.03914517e-02, 6.39268234e-02, 4.93539050e-02,
          6.03277534e-02, 6.49348572e-02, 9.53198373e-02, 8.18491727e-02,
          5.20478748e-02, 5.36528118e-02, 6.89617395e-02, 9.04036984e-02,
          9.96994078e-02, 9.90411192e-02, 1.52234972e-01, 1.35082319e-01,
          1.28342658e-01, 1.31902084e-01, 1.04096204e-01, 1.38910860e-01,
          1.82821780e-01, 1.61170065e-01, 1.67288736e-01, 1.59654379e-01,
          1.30173981e-01, 1.12576641e-01, 1.07493997e-01, 1.12558126e-01,
          1.44626364e-01, 1.33644715e-01, 1.42373443e-01, 1.02163374e-01,
          1.34182215e-01, 1.02013126e-01, 9.63483229e-02, 1.17123164e-01,
          1.40513331e-01, 9.81307104e-02, 1.30424768e-01, 1.70242995e-01,
          1.94153562e-01, 1.47880539e-01, 9.76932570e-02, 8.03195611e-02,
          1.46444559e-01, 1.28769234e-01, 1.35738105e-01, 1.53631225e-01 ]
      - [ 1.35112152e-01, 1.06072441e-01, 1.27111688e-01, 1.26419917e-01,
          1.29170641e-01, 1.60394788e-01, 1.38364777e-01, 1.46817133e-01,
          1.05484955e-01, 9.14095491e-02, 8.04069936e-02, 9.63515565e-02,
          1.20403327e-01, 1.35511637e-01, 1.67124942e-01, 1.68622419e-01,
          1.21935844e-01, 8.06085244e-02, 5.61313331e-02, 3.99381444e-02,
          4.33423407e-02, 5.72069995e-02, 7.98075572e-02, 6.38792142e-02,
          5.32302149e-02, 4.93049845e-02, 6.08891025e-02, 7.61573464e-02,
          9.60477069e-02, 9.76752490e-02, 1.39794692e-01, 1.32673740e-01,
          1.52322650e-01, 1.23773739e-01, 1.03997581e-01, 1.52449146e-01,
          1.70686483e-01, 1.71800241e-01, 1.62784055e-01, 1.66987732e-01,
          1.62559628e-01, 1.34441093e-01, 9.65000987e-02, 8.97061825e-02,
          1.40797824e-01, 1.35379210e-01, 1.39651075e-01, 1.15224779e-01,
          1.68193236e-01, 1.14817671e-01, 8.16178545e-02, 8.82991478e-02,
          1.04823709e-01, 9.63194072e-02, 1.21473551e-01, 1.90552160e-01,
          2.29651809e-01, 1.62824944e-01, 7.28971139e-02, 7.55201057e-02,
          1.11874983e-01, 1.29038766e-01, 1.51712894e-01, 1.73995897e-01 ]
      - [ 1.45052791e-01, 1.15951926e-01, 1.21708721e-01, 1.35200247e-01,
          1.36298582e-01, 1.56365171e-01, 1.29985452e-01, 1.42014354e-01,
          1.09798282e-01, 8.90431851e-02, 8.15794244e-02, 9.56018046e-02,
          1.19077027e-01, 1.37718633e-01, 1.67403400e-01, 1.58620894e-01,
          1.23337261e-01, 8.53956863e-02, 5.20654768e-02, 3.60748842e-02,
          3.92232798e-02, 6.12422004e-02, 9.89421830e-02, 7.66240060e-02,
          5.51592261e-02, 5.19811697e-02, 6.68043643e-02, 7.55761266e-02,
          9.07653570e-02, 1.00298993e-01, 1.49550065e-01, 1.41403183e-01,
          1.61092699e-01, 1.13242529e-01, 1.10935427e-01, 1.55176163e-01,
          1.57125100e-01, 1.63433462e-01, 1.63095862e-01, 1.76947236e-01,
          1.69375241e-01, 1.26323447e-01, 9.05432776e-02, 9.68260244e-02,
          1.34761855e-01, 1.29505783e-01, 1.33251682e-01, 1.20048225e-01,
          1.45848021e-01, 1.06367350e-01, 8.61160085e-02, 9.21463519e-02,
          9.96363536e-02, 8.81501585e-02, 1.21660016e-01, 1.76398590e-01,
          2.49500275e-01, 1.69085816e-01, 7.72983432e-02, 6.97344318e-02,
          9.91094783e-02, 1.15846612e-01, 1.45090535e-01, 1.85221687e-01 ]
      - [ 1.67266145e-01, 1.43656269e-01, 1.55185536e-01, 1.87867194e-01,
          1.84750155e-01, 1.40480250e-01, 1.21623263e-01, 1.24203205e-01,
          1.49211913e-01, 1.58929557e-01, 1.37156054e-01, 1.33595914e-01,
          1.34505600e-01, 1.51391268e-01, 1.82133943e-01, 1.66818529e-01,
          7.95929506e-02, 8.16472322e-02, 8.91133696e-02, 1.30129203e-01,
          7.83486441e-02, 6.74800873e-02, 8.08007568e-02, 7.09974691e-02,
          6.17590547e-02, 5.57139590e-02, 6.06445335e-02, 1.07693397e-01,
          1.20693520e-01, 1.21881582e-01, 1.17288373e-01, 9.36211571e-02,
          1.06450662e-01, 1.05103768e-01, 9.46435258e-02, 1.45553112e-01,
          2.11164728e-01, 1.61998704e-01, 1.23676226e-01, 1.41331241e-01,
          1.51971459e-01, 1.32582217e-01, 1.34990558e-01, 1.33777663e-01,
          1.34118214e-01, 1.36431456e-01, 1.12136953e-01, 9.99583006e-02,
          1.01990364e-01, 8.94939229e-02, 8.85407776e-02, 8.53215829e-02,
          1.05576292e-01, 1.24581084e-01, 1.34617969e-01, 1.16394565e-01,
          1.19796090e-01, 1.08017325e-01, 1.02376349e-01, 1.23318799e-01,
          1.33377165e-01, 9.91056487e-02, 1.07580595e-01, 1.00534707e-01 ]
      - [ 1.55171096e-01, 1.38247877e-01, 1.75118461e-01, 1.71132177e-01,
          1.81748509e-01, 1.24191508e-01, 1.19453259e-01, 1.27233893e-01,
          1.50690675e-01, 1.55531064e-01, 1.38364032e-01, 1.26398087e-01,
          1.28996834e-01, 1.45415887e-01, 1.76514208e-01, 1.73852295e-01,
          8.64692926e-02, 7.00592622e-02, 1.01276584e-01, 1.28618076e-01,
          7.39082918e-02, 6.65941685e-02, 6.39251247e-02, 7.11896345e-02,
          6.60171211e-02, 5.58359213e-02, 6.45839125e-02, 9.66312885e-02,
          1.14956461e-01, 1.19797409e-01, 1.04689837e-01, 8.90553594e-02,
          1.14569537e-01, 1.11442804e-01, 9.81942713e-02, 1.44331336e-01,
          2.03924417e-01, 1.51566535e-01, 1.45843863e-01, 1.44917041e-01,
          1.39516965e-01, 1.44228756e-01, 1.40286997e-01, 1.16939843e-01,
          1.34515628e-01, 1.47170201e-01, 1.22248128e-01, 1.02442950e-01,
          1.07933164e-01, 9.81361791e-02, 9.39072222e-02, 9.18913931e-02,
          1.04940817e-01, 1.14401080e-01, 1.42871305e-01, 1.41894981e-01,
          1.21270224e-01, 1.22025169e-01, 9.30225775e-02, 1.16894469e-01,
          1.38975382e-01, 1.03117876e-01, 1.09484956e-01, 1.11251816e-01 ]
      - [ 1.59302205e-01, 1.68376714e-01, 1.55132130e-01, 1.80732444e-01,
          1.86035424e-01, 1.25331849e-01, 1.10630542e-01, 1.23989977e-01,
          1.58384115e-01, 1.69884130e-01, 1.34583876e-01, 1.28133133e-01,
          1.34989142e-01, 1.49751052e-01, 1.72611818e-01, 1.70889780e-01,
          9.44762975e-02, 6.76194727e-02, 9.54868123e-02, 1.29317299e-01,
          7.42972195e-02, 5.83018810e-02, 7.29868338e-02, 6.99820817e-02,
          6.54694289e-02, 5.43439947e-02, 5.93380816e-02, 8.88111442e-02,
          1.35852680e-01, 1.17711581e-01, 9.81208533e-02, 9.63660479e-02,
          1.06907457e-01, 1.08294286e-01, 1.00189403e-01, 1.39742136e-01,
          2.10790217e-01, 1.54339939e-01, 1.20847866e-01, 1.39953017e-01,
          1.53981969e-01, 1.54037923e-01, 1.33432314e-01, 1.14000760e-01,
          1.18146546e-01, 1.45234466e-01, 1.13706991e-01, 9.68546271e-02,
          1.08339921e-01, 9.97336507e-02, 8.21478069e-02, 8.15815106e-02,
          1.09202608e-01, 1.08102404e-01, 1.49342865e-01, 1.37312904e-01,
          1.35199219e-01, 1.00761928e-01, 9.34772715e-02, 1.25040263e-01,
          1.32804990e-01, 1.01803117e-01, 1.06842875e-01, 1.10843681e-01 ]
      - [ 1.52101055e-01, 1.68911427e-01, 1.65836543e-01, 1.79902166e-01,
          1.83655262e-01, 1.24834061e-01, 1.16695747e-01, 1.21416740e-01,
          1.51040047e-01, 1.68693691e-01, 1.40590042e-01, 1.30023673e-01,
          1.33177429e-01, 1.49887100e-01, 1.79222673e-01, 1.75711215e-01,
          9.58016738e-02, 6.95460811e-02, 9.78485569e-02, 1.21585190e-01,
          6.79481402e-02, 6.25609830e-02, 7.64349401e-02, 6.75908700e-02,
          6.09977767e-02, 5.34283035e-02, 5.46033345e-02, 8.91315341e-02,
          1.07797392e-01, 1.09945886e-01, 1.20194167e-01, 8.32102001e-02,
          1.23937637e-01, 1.11218989e-01, 1.07158497e-01, 1.40222713e-01,
          2.21482620e-01, 1.56849131e-01, 1.35395110e-01, 1.37977764e-01,
          1.53492764e-01, 1.66129529e-01, 1.40491307e-01, 1.20979026e-01,
          1.34461075e-01, 1.43076316e-01, 1.17633499e-01, 9.66304615e-02,
          1.00082465e-01, 9.08358470e-02, 8.05603340e-02, 8.00139233e-02,
          8.72207284e-02, 1.04232371e-01, 1.48823261e-01, 1.29877985e-01,
          1.26519531e-01, 9.92860571e-02, 8.63530189e-02, 1.16798617e-01,
          1.29725054e-01, 9.45262611e-02, 1.05180129e-01, 1.00808755e-01 ]
      - [ 1.47981763e-01, 1.57179102e-01, 1.66507542e-01, 1.76872805e-01,
          1.98762774e-01, 1.32665500e-01, 1.19230047e-01, 1.23727657e-01,
          1.58037022e-01, 1.73265278e-01, 1.55764759e-01, 1.31736144e-01,
          1.29978761e-01, 1.39556393e-01, 1.79028258e-01, 1.97607443e-01,
          8.84520859e-02, 7.40197599e-02, 8.86602402e-02, 1.29885882e-01,
          7.45657906e-02, 5.79918139e-02, 7.31565058e-02, 7.42939562e-02,
          6.52864873e-02, 6.02974780e-02, 5.88638783e-02, 9.78306308e-02,
          1.24146558e-01, 1.09597959e-01, 1.00589588e-01, 1.07608706e-01,
          1.13453850e-01, 1.02456629e-01, 9.19586718e-02, 1.27480745e-01,
          1.97171167e-01, 1.42192587e-01, 1.18449390e-01, 1.45171329e-01,
          1.67634636e-01, 1.30768970e-01, 1.17388509e-01, 9.99639109e-02,
          1.19267814e-01, 1.32808939e-01, 1.12736583e-01, 1.07702196e-01,
          1.07080758e-01, 1.07936867e-01, 9.44076404e-02, 8.91237706e-02,
          1.03367239e-01, 1.04191847e-01, 1.49127007e-01, 1.29043803e-01,
          1.41502514e-01, 1.00786805e-01, 8.75343755e-02, 1.26958817e-01,
          1.49075985e-01, 1.02698199e-01, 1.05063297e-01, 1.00940123e-01 ]
      - [ 1.42649919e-01, 1.47989571e-01, 1.67674556e-01, 1.64324194e-01,
          1.78042233e-01, 1.29971012e-01, 1.11661538e-01, 1.19315296e-01,
          1.47720486e-01, 1.59474924e-01, 1.38643533e-01, 1.22875541e-01,
          1.27647609e-01, 1.44637302e-01, 1.68828472e-01, 1.79923370e-01,
          7.04715177e-02, 7.29888156e-02, 7.38127977e-02, 1.09737143e-01,
          8.39254558e-02, 5.78516573e-02, 6.65966049e-02, 6.33140951e-02,
          6.21386953e-02, 5.41734509e-02, 5.54721095e-02, 9.32998285e-02,
          1.04336798e-01, 1.11684814e-01, 1.12068117e-01, 9.94987562e-02,
          1.19927518e-01, 1.10918112e-01, 1.15598999e-01, 1.72137901e-01,
          2.01819718e-01, 1.60048380e-01, 1.42273158e-01, 1.50284886e-01,
          1.51623338e-01, 1.56493604e-01, 1.38959587e-01, 1.34299949e-01,
          1.36226475e-01, 1.54716834e-01, 1.36771217e-01, 1.18030332e-01,
          1.08293638e-01, 9.56841633e-02, 8.68233666e-02, 9.47683007e-02,
          1.10861532e-01, 1.06239632e-01, 1.28182426e-01, 1.22496299e-01,
          1.39856607e-01, 1.04220487e-01, 1.06315278e-01, 1.21251605e-01,
          1.27437949e-01, 1.03224479e-01, 1.09971531e-01, 1.00070313e-01 ]
      - [ 1.52501374e-01, 1.62859052e-01, 1.48440465e-01, 1.92057043e-01,
          2.02920258e-01, 1.34575590e-01, 1.21363603e-01, 1.17164172e-01,
          1.46313652e-01, 1.56542122e-01, 1.45209253e-01, 1.36401966e-01,
          1.37696475e-01, 1.58796504e-01, 1.95226923e-01, 1.64576992e-01,
          8.03414136e-02, 6.39002025e-02, 7.27510676e-02, 1.26802430e-01,
          6.23018295e-02, 5.49739636e-02, 6.65738657e-02, 6.02280386e-02,
          5.68184182e-02, 5.06276004e-02, 5.22999801e-02, 7.99710825e-02,
          1.05841525e-01, 1.20866992e-01, 1.07980855e-01, 1.05884813e-01,
          1.06760360e-01, 9.48368683e-02, 7.96085522e-02, 1.52951524e-01,
          2.12112829e-01, 1.59660414e-01, 1.40354738e-01, 1.37595087e-01,
          1.46879107e-01, 1.45331994e-01, 1.28433377e-01, 1.23370104e-01,
          1.27820894e-01, 1.46122560e-01, 1.07617922e-01, 1.08702734e-01,
          1.07064985e-01, 9.77003276e-02, 8.54039937e-02, 8.18856359e-02,
          9.44429114e-02, 1.07983485e-01, 1.34856969e-01, 1.53034702e-01,
          1.41842544e-01, 9.99093577e-02, 8.73710364e-02, 1.22012004e-01,
          1.34975925e-01, 1.00528762e-01, 1.16612725e-01, 1.07811071e-01 ]
      - [ 1.50307849e-01, 1.50243714e-01, 1.45892859e-01, 2.33165562e-01,
          1.90897450e-01, 1.57652706e-01, 1.42224893e-01, 1.08192168e-01,
          1.34121954e-01, 1.33626089e-01, 1.46417186e-01, 1.61425039e-01,
          1.60520941e-01, 1.26816154e-01, 1.47079453e-01, 1.68684900e-01,
          1.31933540e-01, 7.34954774e-02, 5.50360046e-02, 7.28681460e-02,
          1.10338099e-01, 1.17511183e-01, 9.64244902e-02, 7.37793446e-02,
          6.27981797e-02, 7.39337578e-02, 9.62800458e-02, 1.29142448e-01,
          1.50036752e-01, 1.74661726e-01, 1.57201812e-01, 1.22528791e-01,
          5.05310744e-02, 4.71102335e-02, 4.98346314e-02, 1.09457694e-01,
          1.81089714e-01, 1.73418835e-01, 1.46075979e-01, 9.80330184e-02,
          1.06227659e-01, 6.69393465e-02, 6.94192871e-02, 1.00344084e-01,
          1.13100380e-01, 1.03310905e-01, 1.04617812e-01, 6.29531816e-02,
          7.51341507e-02, 7.48786777e-02, 8.44099596e-02, 1.13102295e-01,
          1.46217763e-01, 1.46693468e-01, 1.47617131e-01, 1.05412677e-01,
          1.20690517e-01, 1.12872899e-01, 1.40493363e-01, 1.26075238e-01,
          1.42305613e-01, 1.36846110e-01, 1.15078852e-01, 8.05850402e-02 ]
      - [ 1.73784882e-01, 1.24398477e-01, 1.39018461e-01, 2.19148844e-01,
          1.91065982e-01, 1.48217782e-01, 1.48729101e-01, 1.42208561e-01,
          1.41701847e-01, 1.40700072e-01, 1.49882689e-01, 1.52668059e-01,
          1.27616122e-01, 1.17526971e-01, 1.70172751e-01, 1.88696116e-01,
          1.20707914e-01, 7.80603364e-02, 7.25911409e-02, 7.96235949e-02,
          1.17244430e-01, 1.13937378e-01, 9.97614935e-02, 7.79826865e-02,
          6.80494532e-02, 7.46513754e-02, 9.33257118e-02, 1.33690745e-01,
          1.51802242e-01, 1.76832184e-01, 1.59083143e-01, 1.20559946e-01,
          5.23942411e-02, 5.08061275e-02, 8.52508992e-02, 1.15294904e-01,
          1.57486781e-01, 1.61102235e-01, 1.40005767e-01, 1.08510517e-01,
          1.08314358e-01, 7.08205551e-02, 8.64490345e-02, 8.80380943e-02,
          9.10113305e-02, 8.60443264e-02, 1.17969960e-01, 8.87502134e-02,
          7.37058744e-02, 7.80991465e-02, 8.30234736e-02, 1.19574085e-01,
          1.38511688e-01, 1.37496933e-01, 1.39315784e-01, 1.20778546e-01,
          1.27228379e-01, 1.19029693e-01, 1.17454275e-01, 1.22983985e-01,
          1.42947897e-01, 1.40116572e-01, 1.09002866e-01, 7.97428191e-02 ]
      - [ 1.77924916e-01, 1.17012762e-01, 1.51404783e-01, 2.17164174e-01,
          2.03902394e-01, 1.43332779e-01, 1.37796834e-01, 1.35045007e-01,
          1.50722578e-01, 1.40806496e-01, 1.53625473e-01, 1.50046080e-01,
          1.26471072e-01, 1.27850145e-01, 1.65119335e-01, 1.72492996e-01,
          1.17587797e-01, 9.27830711e-02, 7.90277272e-02, 8.00334439e-02,
          1.07887849e-01, 1.13394916e-01, 9.55159590e-02, 7.28330016e-02,
          6.65094778e-02, 6.99585006e-02, 9.63640511e-02, 1.34873226e-01,
          1.40476182e-01, 1.84926137e-01, 1.69320226e-01, 8.76243189e-02,
          6.14678301e-02, 4.20857929e-02, 4.70982380e-02, 1.23037957e-01,
          1.67475343e-01, 1.79228857e-01, 1.32108286e-01, 1.03246644e-01,
          9.48877335e-02, 7.28069916e-02, 1.03013426e-01, 9.08543020e-02,
          8.80647674e-02, 9.32923704e-02, 1.10546574e-01, 9.16297659e-02,
          7.77075514e-02, 7.78831691e-02, 8.62587392e-02, 1.16213657e-01,
          1.29543856e-01, 1.40131623e-01, 1.50012434e-01, 1.18107125e-01,
          1.27791345e-01, 1.13142967e-01, 1.20466873e-01, 1.29333571e-01,
          1.49400488e-01, 1.32087186e-01, 1.12831317e-01, 7.67523721e-02 ]
